digraph Tree {
node [shape=box] ;
0 [label="alcohol <= 10.525\ngini = 0.64\nsamples = 1279\nvalue = [8, 44, 549, 511, 157, 10]"] ;
1 [label="total sulfur dioxide <= 83.5\ngini = 0.544\nsamples = 798\nvalue = [6, 28, 466, 267, 30, 1]"] ;
0 -> 1 [labeldistance=2.5, labelangle=45, headlabel="True"] ;
2 [label="sulphates <= 0.525\ngini = 0.58\nsamples = 638\nvalue = [6, 26, 332, 243, 30, 1]"] ;
1 -> 2 ;
3 [label="alcohol <= 9.075\ngini = 0.421\nsamples = 131\nvalue = [2, 13, 97, 19, 0, 0]"] ;
2 -> 3 ;
4 [label="density <= 0.998\ngini = 0.56\nsamples = 5\nvalue = [0, 3, 1, 1, 0, 0]"] ;
3 -> 4 ;
5 [label="gini = 0.0\nsamples = 3\nvalue = [0, 3, 0, 0, 0, 0]"] ;
4 -> 5 ;
6 [label="pH <= 3.18\ngini = 0.5\nsamples = 2\nvalue = [0, 0, 1, 1, 0, 0]"] ;
4 -> 6 ;
7 [label="gini = 0.0\nsamples = 1\nvalue = [0, 0, 1, 0, 0, 0]"] ;
6 -> 7 ;
8 [label="gini = 0.0\nsamples = 1\nvalue = [0, 0, 0, 1, 0, 0]"] ;
6 -> 8 ;
9 [label="density <= 0.994\ngini = 0.393\nsamples = 126\nvalue = [2, 10, 96, 18, 0, 0]"] ;
3 -> 9 ;
10 [label="gini = 0.0\nsamples = 2\nvalue = [0, 2, 0, 0, 0, 0]"] ;
9 -> 10 ;
11 [label="alcohol <= 9.65\ngini = 0.375\nsamples = 124\nvalue = [2, 8, 96, 18, 0, 0]"] ;
9 -> 11 ;
12 [label="total sulfur dioxide <= 80.25\ngini = 0.261\nsamples = 75\nvalue = [0, 6, 64, 5, 0, 0]"] ;
11 -> 12 ;
13 [label="volatile acidity <= 0.28\ngini = 0.243\nsamples = 74\nvalue = [0, 6, 64, 4, 0, 0]"] ;
12 -> 13 ;
14 [label="gini = 0.0\nsamples = 1\nvalue = [0, 1, 0, 0, 0, 0]"] ;
13 -> 14 ;
15 [label="total sulfur dioxide <= 8.5\ngini = 0.224\nsamples = 73\nvalue = [0, 5, 64, 4, 0, 0]"] ;
13 -> 15 ;
16 [label="gini = 0.0\nsamples = 1\nvalue = [0, 1, 0, 0, 0, 0]"] ;
15 -> 16 ;
17 [label="alcohol <= 9.55\ngini = 0.204\nsamples = 72\nvalue = [0, 4, 64, 4, 0, 0]"] ;
15 -> 17 ;
18 [label="total sulfur dioxide <= 10.5\ngini = 0.155\nsamples = 60\nvalue = [0, 1, 55, 4, 0, 0]"] ;
17 -> 18 ;
19 [label="citric acid <= 0.19\ngini = 0.5\nsamples = 2\nvalue = [0, 0, 1, 1, 0, 0]"] ;
18 -> 19 ;
20 [label="gini = 0.0\nsamples = 1\nvalue = [0, 0, 1, 0, 0, 0]"] ;
19 -> 20 ;
21 [label="gini = 0.0\nsamples = 1\nvalue = [0, 0, 0, 1, 0, 0]"] ;
19 -> 21 ;
22 [label="residual sugar <= 2.65\ngini = 0.13\nsamples = 58\nvalue = [0, 1, 54, 3, 0, 0]"] ;
18 -> 22 ;
23 [label="fixed acidity <= 6.65\ngini = 0.078\nsamples = 49\nvalue = [0, 0, 47, 2, 0, 0]"] ;
22 -> 23 ;
24 [label="citric acid <= 0.05\ngini = 0.444\nsamples = 3\nvalue = [0, 0, 2, 1, 0, 0]"] ;
23 -> 24 ;
25 [label="gini = 0.0\nsamples = 2\nvalue = [0, 0, 2, 0, 0, 0]"] ;
24 -> 25 ;
26 [label="gini = 0.0\nsamples = 1\nvalue = [0, 0, 0, 1, 0, 0]"] ;
24 -> 26 ;
27 [label="pH <= 3.365\ngini = 0.043\nsamples = 46\nvalue = [0, 0, 45, 1, 0, 0]"] ;
23 -> 27 ;
28 [label="gini = 0.0\nsamples = 36\nvalue = [0, 0, 36, 0, 0, 0]"] ;
27 -> 28 ;
29 [label="fixed acidity <= 7.55\ngini = 0.18\nsamples = 10\nvalue = [0, 0, 9, 1, 0, 0]"] ;
27 -> 29 ;
30 [label="gini = 0.0\nsamples = 9\nvalue = [0, 0, 9, 0, 0, 0]"] ;
29 -> 30 ;
31 [label="gini = 0.0\nsamples = 1\nvalue = [0, 0, 0, 1, 0, 0]"] ;
29 -> 31 ;
32 [label="residual sugar <= 3.0\ngini = 0.37\nsamples = 9\nvalue = [0, 1, 7, 1, 0, 0]"] ;
22 -> 32 ;
33 [label="pH <= 3.275\ngini = 0.5\nsamples = 2\nvalue = [0, 1, 0, 1, 0, 0]"] ;
32 -> 33 ;
34 [label="gini = 0.0\nsamples = 1\nvalue = [0, 1, 0, 0, 0, 0]"] ;
33 -> 34 ;
35 [label="gini = 0.0\nsamples = 1\nvalue = [0, 0, 0, 1, 0, 0]"] ;
33 -> 35 ;
36 [label="gini = 0.0\nsamples = 7\nvalue = [0, 0, 7, 0, 0, 0]"] ;
32 -> 36 ;
37 [label="citric acid <= 0.015\ngini = 0.375\nsamples = 12\nvalue = [0, 3, 9, 0, 0, 0]"] ;
17 -> 37 ;
38 [label="gini = 0.0\nsamples = 2\nvalue = [0, 2, 0, 0, 0, 0]"] ;
37 -> 38 ;
39 [label="volatile acidity <= 0.895\ngini = 0.18\nsamples = 10\nvalue = [0, 1, 9, 0, 0, 0]"] ;
37 -> 39 ;
40 [label="gini = 0.0\nsamples = 9\nvalue = [0, 0, 9, 0, 0, 0]"] ;
39 -> 40 ;
41 [label="gini = 0.0\nsamples = 1\nvalue = [0, 1, 0, 0, 0, 0]"] ;
39 -> 41 ;
42 [label="gini = 0.0\nsamples = 1\nvalue = [0, 0, 0, 1, 0, 0]"] ;
12 -> 42 ;
43 [label="density <= 0.996\ngini = 0.5\nsamples = 49\nvalue = [2, 2, 32, 13, 0, 0]"] ;
11 -> 43 ;
44 [label="residual sugar <= 1.3\ngini = 0.142\nsamples = 13\nvalue = [1, 0, 12, 0, 0, 0]"] ;
43 -> 44 ;
45 [label="gini = 0.0\nsamples = 1\nvalue = [1, 0, 0, 0, 0, 0]"] ;
44 -> 45 ;
46 [label="gini = 0.0\nsamples = 12\nvalue = [0, 0, 12, 0, 0, 0]"] ;
44 -> 46 ;
47 [label="volatile acidity <= 0.785\ngini = 0.557\nsamples = 36\nvalue = [1, 2, 20, 13, 0, 0]"] ;
43 -> 47 ;
48 [label="chlorides <= 0.071\ngini = 0.499\nsamples = 25\nvalue = [0, 0, 12, 13, 0, 0]"] ;
47 -> 48 ;
49 [label="sulphates <= 0.425\ngini = 0.245\nsamples = 7\nvalue = [0, 0, 6, 1, 0, 0]"] ;
48 -> 49 ;
50 [label="gini = 0.0\nsamples = 1\nvalue = [0, 0, 0, 1, 0, 0]"] ;
49 -> 50 ;
51 [label="gini = 0.0\nsamples = 6\nvalue = [0, 0, 6, 0, 0, 0]"] ;
49 -> 51 ;
52 [label="pH <= 3.38\ngini = 0.444\nsamples = 18\nvalue = [0, 0, 6, 12, 0, 0]"] ;
48 -> 52 ;
53 [label="citric acid <= 0.24\ngini = 0.375\nsamples = 16\nvalue = [0, 0, 4, 12, 0, 0]"] ;
52 -> 53 ;
54 [label="volatile acidity <= 0.627\ngini = 0.165\nsamples = 11\nvalue = [0, 0, 1, 10, 0, 0]"] ;
53 -> 54 ;
55 [label="gini = 0.0\nsamples = 9\nvalue = [0, 0, 0, 9, 0, 0]"] ;
54 -> 55 ;
56 [label="pH <= 3.285\ngini = 0.5\nsamples = 2\nvalue = [0, 0, 1, 1, 0, 0]"] ;
54 -> 56 ;
57 [label="gini = 0.0\nsamples = 1\nvalue = [0, 0, 0, 1, 0, 0]"] ;
56 -> 57 ;
58 [label="gini = 0.0\nsamples = 1\nvalue = [0, 0, 1, 0, 0, 0]"] ;
56 -> 58 ;
59 [label="chlorides <= 0.079\ngini = 0.48\nsamples = 5\nvalue = [0, 0, 3, 2, 0, 0]"] ;
53 -> 59 ;
60 [label="gini = 0.0\nsamples = 2\nvalue = [0, 0, 2, 0, 0, 0]"] ;
59 -> 60 ;
61 [label="chlorides <= 0.084\ngini = 0.444\nsamples = 3\nvalue = [0, 0, 1, 2, 0, 0]"] ;
59 -> 61 ;
62 [label="gini = 0.0\nsamples = 2\nvalue = [0, 0, 0, 2, 0, 0]"] ;
61 -> 62 ;
63 [label="gini = 0.0\nsamples = 1\nvalue = [0, 0, 1, 0, 0, 0]"] ;
61 -> 63 ;
64 [label="gini = 0.0\nsamples = 2\nvalue = [0, 0, 2, 0, 0, 0]"] ;
52 -> 64 ;
65 [label="citric acid <= 0.21\ngini = 0.43\nsamples = 11\nvalue = [1, 2, 8, 0, 0, 0]"] ;
47 -> 65 ;
66 [label="free sulfur dioxide <= 3.5\ngini = 0.219\nsamples = 8\nvalue = [1, 0, 7, 0, 0, 0]"] ;
65 -> 66 ;
67 [label="gini = 0.0\nsamples = 1\nvalue = [1, 0, 0, 0, 0, 0]"] ;
66 -> 67 ;
68 [label="gini = 0.0\nsamples = 7\nvalue = [0, 0, 7, 0, 0, 0]"] ;
66 -> 68 ;
69 [label="total sulfur dioxide <= 66.5\ngini = 0.444\nsamples = 3\nvalue = [0, 2, 1, 0, 0, 0]"] ;
65 -> 69 ;
70 [label="gini = 0.0\nsamples = 2\nvalue = [0, 2, 0, 0, 0, 0]"] ;
69 -> 70 ;
71 [label="gini = 0.0\nsamples = 1\nvalue = [0, 0, 1, 0, 0, 0]"] ;
69 -> 71 ;
72 [label="volatile acidity <= 0.548\ngini = 0.586\nsamples = 507\nvalue = [4, 13, 235, 224, 30, 1]"] ;
2 -> 72 ;
73 [label="sulphates <= 0.665\ngini = 0.571\nsamples = 272\nvalue = [0, 4, 98, 147, 22, 1]"] ;
72 -> 73 ;
74 [label="total sulfur dioxide <= 38.5\ngini = 0.55\nsamples = 151\nvalue = [0, 2, 72, 71, 6, 0]"] ;
73 -> 74 ;
75 [label="volatile acidity <= 0.455\ngini = 0.496\nsamples = 74\nvalue = [0, 0, 27, 45, 2, 0]"] ;
74 -> 75 ;
76 [label="residual sugar <= 2.55\ngini = 0.522\nsamples = 33\nvalue = [0, 0, 18, 14, 1, 0]"] ;
75 -> 76 ;
77 [label="residual sugar <= 1.5\ngini = 0.533\nsamples = 28\nvalue = [0, 0, 13, 14, 1, 0]"] ;
76 -> 77 ;
78 [label="gini = 0.0\nsamples = 3\nvalue = [0, 0, 3, 0, 0, 0]"] ;
77 -> 78 ;
79 [label="fixed acidity <= 10.25\ngini = 0.525\nsamples = 25\nvalue = [0, 0, 10, 14, 1, 0]"] ;
77 -> 79 ;
80 [label="chlorides <= 0.064\ngini = 0.5\nsamples = 20\nvalue = [0, 0, 10, 10, 0, 0]"] ;
79 -> 80 ;
81 [label="gini = 0.0\nsamples = 3\nvalue = [0, 0, 0, 3, 0, 0]"] ;
80 -> 81 ;
82 [label="density <= 0.998\ngini = 0.484\nsamples = 17\nvalue = [0, 0, 10, 7, 0, 0]"] ;
80 -> 82 ;
83 [label="residual sugar <= 1.95\ngini = 0.497\nsamples = 13\nvalue = [0, 0, 6, 7, 0, 0]"] ;
82 -> 83 ;
84 [label="pH <= 3.235\ngini = 0.444\nsamples = 9\nvalue = [0, 0, 6, 3, 0, 0]"] ;
83 -> 84 ;
85 [label="gini = 0.0\nsamples = 2\nvalue = [0, 0, 0, 2, 0, 0]"] ;
84 -> 85 ;
86 [label="free sulfur dioxide <= 13.0\ngini = 0.245\nsamples = 7\nvalue = [0, 0, 6, 1, 0, 0]"] ;
84 -> 86 ;
87 [label="gini = 0.0\nsamples = 6\nvalue = [0, 0, 6, 0, 0, 0]"] ;
86 -> 87 ;
88 [label="gini = 0.0\nsamples = 1\nvalue = [0, 0, 0, 1, 0, 0]"] ;
86 -> 88 ;
89 [label="gini = 0.0\nsamples = 4\nvalue = [0, 0, 0, 4, 0, 0]"] ;
83 -> 89 ;
90 [label="gini = 0.0\nsamples = 4\nvalue = [0, 0, 4, 0, 0, 0]"] ;
82 -> 90 ;
91 [label="volatile acidity <= 0.31\ngini = 0.32\nsamples = 5\nvalue = [0, 0, 0, 4, 1, 0]"] ;
79 -> 91 ;
92 [label="gini = 0.0\nsamples = 1\nvalue = [0, 0, 0, 0, 1, 0]"] ;
91 -> 92 ;
93 [label="gini = 0.0\nsamples = 4\nvalue = [0, 0, 0, 4, 0, 0]"] ;
91 -> 93 ;
94 [label="gini = 0.0\nsamples = 5\nvalue = [0, 0, 5, 0, 0, 0]"] ;
76 -> 94 ;
95 [label="pH <= 3.595\ngini = 0.38\nsamples = 41\nvalue = [0, 0, 9, 31, 1, 0]"] ;
75 -> 95 ;
96 [label="chlorides <= 0.062\ngini = 0.309\nsamples = 38\nvalue = [0, 0, 6, 31, 1, 0]"] ;
95 -> 96 ;
97 [label="gini = 0.0\nsamples = 2\nvalue = [0, 0, 2, 0, 0, 0]"] ;
96 -> 97 ;
98 [label="pH <= 3.06\ngini = 0.245\nsamples = 36\nvalue = [0, 0, 4, 31, 1, 0]"] ;
96 -> 98 ;
99 [label="gini = 0.0\nsamples = 1\nvalue = [0, 0, 1, 0, 0, 0]"] ;
98 -> 99 ;
100 [label="sulphates <= 0.535\ngini = 0.207\nsamples = 35\nvalue = [0, 0, 3, 31, 1, 0]"] ;
98 -> 100 ;
101 [label="gini = 0.0\nsamples = 1\nvalue = [0, 0, 1, 0, 0, 0]"] ;
100 -> 101 ;
102 [label="pH <= 3.5\ngini = 0.164\nsamples = 34\nvalue = [0, 0, 2, 31, 1, 0]"] ;
100 -> 102 ;
103 [label="total sulfur dioxide <= 33.5\ngini = 0.119\nsamples = 32\nvalue = [0, 0, 1, 30, 1, 0]"] ;
102 -> 103 ;
104 [label="gini = 0.0\nsamples = 24\nvalue = [0, 0, 0, 24, 0, 0]"] ;
103 -> 104 ;
105 [label="citric acid <= 0.17\ngini = 0.406\nsamples = 8\nvalue = [0, 0, 1, 6, 1, 0]"] ;
103 -> 105 ;
106 [label="sulphates <= 0.595\ngini = 0.5\nsamples = 2\nvalue = [0, 0, 1, 0, 1, 0]"] ;
105 -> 106 ;
107 [label="gini = 0.0\nsamples = 1\nvalue = [0, 0, 1, 0, 0, 0]"] ;
106 -> 107 ;
108 [label="gini = 0.0\nsamples = 1\nvalue = [0, 0, 0, 0, 1, 0]"] ;
106 -> 108 ;
109 [label="gini = 0.0\nsamples = 6\nvalue = [0, 0, 0, 6, 0, 0]"] ;
105 -> 109 ;
110 [label="fixed acidity <= 7.25\ngini = 0.5\nsamples = 2\nvalue = [0, 0, 1, 1, 0, 0]"] ;
102 -> 110 ;
111 [label="gini = 0.0\nsamples = 1\nvalue = [0, 0, 1, 0, 0, 0]"] ;
110 -> 111 ;
112 [label="gini = 0.0\nsamples = 1\nvalue = [0, 0, 0, 1, 0, 0]"] ;
110 -> 112 ;
113 [label="gini = 0.0\nsamples = 3\nvalue = [0, 0, 3, 0, 0, 0]"] ;
95 -> 113 ;
114 [label="alcohol <= 9.45\ngini = 0.541\nsamples = 77\nvalue = [0, 2, 45, 26, 4, 0]"] ;
74 -> 114 ;
115 [label="volatile acidity <= 0.23\ngini = 0.188\nsamples = 19\nvalue = [0, 0, 17, 2, 0, 0]"] ;
114 -> 115 ;
116 [label="gini = 0.0\nsamples = 1\nvalue = [0, 0, 0, 1, 0, 0]"] ;
115 -> 116 ;
117 [label="free sulfur dioxide <= 10.5\ngini = 0.105\nsamples = 18\nvalue = [0, 0, 17, 1, 0, 0]"] ;
115 -> 117 ;
118 [label="density <= 0.997\ngini = 0.5\nsamples = 2\nvalue = [0, 0, 1, 1, 0, 0]"] ;
117 -> 118 ;
119 [label="gini = 0.0\nsamples = 1\nvalue = [0, 0, 0, 1, 0, 0]"] ;
118 -> 119 ;
120 [label="gini = 0.0\nsamples = 1\nvalue = [0, 0, 1, 0, 0, 0]"] ;
118 -> 120 ;
121 [label="gini = 0.0\nsamples = 16\nvalue = [0, 0, 16, 0, 0, 0]"] ;
117 -> 121 ;
122 [label="fixed acidity <= 7.25\ngini = 0.59\nsamples = 58\nvalue = [0, 2, 28, 24, 4, 0]"] ;
114 -> 122 ;
123 [label="pH <= 3.435\ngini = 0.432\nsamples = 19\nvalue = [0, 0, 6, 13, 0, 0]"] ;
122 -> 123 ;
124 [label="pH <= 3.355\ngini = 0.26\nsamples = 13\nvalue = [0, 0, 2, 11, 0, 0]"] ;
123 -> 124 ;
125 [label="gini = 0.0\nsamples = 2\nvalue = [0, 0, 2, 0, 0, 0]"] ;
124 -> 125 ;
126 [label="gini = 0.0\nsamples = 11\nvalue = [0, 0, 0, 11, 0, 0]"] ;
124 -> 126 ;
127 [label="fixed acidity <= 6.95\ngini = 0.444\nsamples = 6\nvalue = [0, 0, 4, 2, 0, 0]"] ;
123 -> 127 ;
128 [label="gini = 0.0\nsamples = 2\nvalue = [0, 0, 0, 2, 0, 0]"] ;
127 -> 128 ;
129 [label="gini = 0.0\nsamples = 4\nvalue = [0, 0, 4, 0, 0, 0]"] ;
127 -> 129 ;
130 [label="alcohol <= 10.45\ngini = 0.589\nsamples = 39\nvalue = [0, 2, 22, 11, 4, 0]"] ;
122 -> 130 ;
131 [label="volatile acidity <= 0.365\ngini = 0.544\nsamples = 33\nvalue = [0, 2, 21, 6, 4, 0]"] ;
130 -> 131 ;
132 [label="chlorides <= 0.071\ngini = 0.571\nsamples = 7\nvalue = [0, 1, 2, 4, 0, 0]"] ;
131 -> 132 ;
133 [label="chlorides <= 0.067\ngini = 0.444\nsamples = 3\nvalue = [0, 1, 2, 0, 0, 0]"] ;
132 -> 133 ;
134 [label="gini = 0.0\nsamples = 2\nvalue = [0, 0, 2, 0, 0, 0]"] ;
133 -> 134 ;
135 [label="gini = 0.0\nsamples = 1\nvalue = [0, 1, 0, 0, 0, 0]"] ;
133 -> 135 ;
136 [label="gini = 0.0\nsamples = 4\nvalue = [0, 0, 0, 4, 0, 0]"] ;
132 -> 136 ;
137 [label="volatile acidity <= 0.47\ngini = 0.435\nsamples = 26\nvalue = [0, 1, 19, 2, 4, 0]"] ;
131 -> 137 ;
138 [label="residual sugar <= 3.65\ngini = 0.194\nsamples = 19\nvalue = [0, 1, 17, 0, 1, 0]"] ;
137 -> 138 ;
139 [label="free sulfur dioxide <= 14.0\ngini = 0.105\nsamples = 18\nvalue = [0, 0, 17, 0, 1, 0]"] ;
138 -> 139 ;
140 [label="pH <= 3.215\ngini = 0.444\nsamples = 3\nvalue = [0, 0, 2, 0, 1, 0]"] ;
139 -> 140 ;
141 [label="gini = 0.0\nsamples = 2\nvalue = [0, 0, 2, 0, 0, 0]"] ;
140 -> 141 ;
142 [label="gini = 0.0\nsamples = 1\nvalue = [0, 0, 0, 0, 1, 0]"] ;
140 -> 142 ;
143 [label="gini = 0.0\nsamples = 15\nvalue = [0, 0, 15, 0, 0, 0]"] ;
139 -> 143 ;
144 [label="gini = 0.0\nsamples = 1\nvalue = [0, 1, 0, 0, 0, 0]"] ;
138 -> 144 ;
145 [label="citric acid <= 0.3\ngini = 0.653\nsamples = 7\nvalue = [0, 0, 2, 2, 3, 0]"] ;
137 -> 145 ;
146 [label="alcohol <= 9.8\ngini = 0.5\nsamples = 4\nvalue = [0, 0, 2, 2, 0, 0]"] ;
145 -> 146 ;
147 [label="gini = 0.0\nsamples = 2\nvalue = [0, 0, 2, 0, 0, 0]"] ;
146 -> 147 ;
148 [label="gini = 0.0\nsamples = 2\nvalue = [0, 0, 0, 2, 0, 0]"] ;
146 -> 148 ;
149 [label="gini = 0.0\nsamples = 3\nvalue = [0, 0, 0, 0, 3, 0]"] ;
145 -> 149 ;
150 [label="residual sugar <= 2.4\ngini = 0.278\nsamples = 6\nvalue = [0, 0, 1, 5, 0, 0]"] ;
130 -> 150 ;
151 [label="gini = 0.0\nsamples = 1\nvalue = [0, 0, 1, 0, 0, 0]"] ;
150 -> 151 ;
152 [label="gini = 0.0\nsamples = 5\nvalue = [0, 0, 0, 5, 0, 0]"] ;
150 -> 152 ;
153 [label="chlorides <= 0.105\ngini = 0.541\nsamples = 121\nvalue = [0, 2, 26, 76, 16, 1]"] ;
73 -> 153 ;
154 [label="volatile acidity <= 0.412\ngini = 0.441\nsamples = 94\nvalue = [0, 0, 11, 68, 14, 1]"] ;
153 -> 154 ;
155 [label="density <= 0.997\ngini = 0.521\nsamples = 68\nvalue = [0, 0, 9, 44, 14, 1]"] ;
154 -> 155 ;
156 [label="fixed acidity <= 7.55\ngini = 0.694\nsamples = 7\nvalue = [0, 0, 3, 1, 2, 1]"] ;
155 -> 156 ;
157 [label="citric acid <= 0.245\ngini = 0.625\nsamples = 4\nvalue = [0, 0, 0, 1, 2, 1]"] ;
156 -> 157 ;
158 [label="gini = 0.0\nsamples = 2\nvalue = [0, 0, 0, 0, 2, 0]"] ;
157 -> 158 ;
159 [label="sulphates <= 0.94\ngini = 0.5\nsamples = 2\nvalue = [0, 0, 0, 1, 0, 1]"] ;
157 -> 159 ;
160 [label="gini = 0.0\nsamples = 1\nvalue = [0, 0, 0, 1, 0, 0]"] ;
159 -> 160 ;
161 [label="gini = 0.0\nsamples = 1\nvalue = [0, 0, 0, 0, 0, 1]"] ;
159 -> 161 ;
162 [label="gini = 0.0\nsamples = 3\nvalue = [0, 0, 3, 0, 0, 0]"] ;
156 -> 162 ;
163 [label="residual sugar <= 4.8\ngini = 0.455\nsamples = 61\nvalue = [0, 0, 6, 43, 12, 0]"] ;
155 -> 163 ;
164 [label="citric acid <= 0.575\ngini = 0.43\nsamples = 59\nvalue = [0, 0, 6, 43, 10, 0]"] ;
163 -> 164 ;
165 [label="pH <= 3.43\ngini = 0.37\nsamples = 53\nvalue = [0, 0, 3, 41, 9, 0]"] ;
164 -> 165 ;
166 [label="density <= 0.997\ngini = 0.312\nsamples = 48\nvalue = [0, 0, 1, 39, 8, 0]"] ;
165 -> 166 ;
167 [label="citric acid <= 0.505\ngini = 0.473\nsamples = 13\nvalue = [0, 0, 0, 8, 5, 0]"] ;
166 -> 167 ;
168 [label="pH <= 3.27\ngini = 0.32\nsamples = 10\nvalue = [0, 0, 0, 8, 2, 0]"] ;
167 -> 168 ;
169 [label="pH <= 3.21\ngini = 0.48\nsamples = 5\nvalue = [0, 0, 0, 3, 2, 0]"] ;
168 -> 169 ;
170 [label="gini = 0.0\nsamples = 3\nvalue = [0, 0, 0, 3, 0, 0]"] ;
169 -> 170 ;
171 [label="gini = 0.0\nsamples = 2\nvalue = [0, 0, 0, 0, 2, 0]"] ;
169 -> 171 ;
172 [label="gini = 0.0\nsamples = 5\nvalue = [0, 0, 0, 5, 0, 0]"] ;
168 -> 172 ;
173 [label="gini = 0.0\nsamples = 3\nvalue = [0, 0, 0, 0, 3, 0]"] ;
167 -> 173 ;
174 [label="fixed acidity <= 14.15\ngini = 0.207\nsamples = 35\nvalue = [0, 0, 1, 31, 3, 0]"] ;
166 -> 174 ;
175 [label="chlorides <= 0.084\ngini = 0.164\nsamples = 34\nvalue = [0, 0, 1, 31, 2, 0]"] ;
174 -> 175 ;
176 [label="gini = 0.0\nsamples = 24\nvalue = [0, 0, 0, 24, 0, 0]"] ;
175 -> 176 ;
177 [label="residual sugar <= 2.65\ngini = 0.46\nsamples = 10\nvalue = [0, 0, 1, 7, 2, 0]"] ;
175 -> 177 ;
178 [label="fixed acidity <= 9.45\ngini = 0.625\nsamples = 4\nvalue = [0, 0, 1, 1, 2, 0]"] ;
177 -> 178 ;
179 [label="total sulfur dioxide <= 48.0\ngini = 0.5\nsamples = 2\nvalue = [0, 0, 1, 1, 0, 0]"] ;
178 -> 179 ;
180 [label="gini = 0.0\nsamples = 1\nvalue = [0, 0, 1, 0, 0, 0]"] ;
179 -> 180 ;
181 [label="gini = 0.0\nsamples = 1\nvalue = [0, 0, 0, 1, 0, 0]"] ;
179 -> 181 ;
182 [label="gini = 0.0\nsamples = 2\nvalue = [0, 0, 0, 0, 2, 0]"] ;
178 -> 182 ;
183 [label="gini = 0.0\nsamples = 6\nvalue = [0, 0, 0, 6, 0, 0]"] ;
177 -> 183 ;
184 [label="gini = 0.0\nsamples = 1\nvalue = [0, 0, 0, 0, 1, 0]"] ;
174 -> 184 ;
185 [label="volatile acidity <= 0.245\ngini = 0.64\nsamples = 5\nvalue = [0, 0, 2, 2, 1, 0]"] ;
165 -> 185 ;
186 [label="gini = 0.0\nsamples = 2\nvalue = [0, 0, 0, 2, 0, 0]"] ;
185 -> 186 ;
187 [label="volatile acidity <= 0.27\ngini = 0.444\nsamples = 3\nvalue = [0, 0, 2, 0, 1, 0]"] ;
185 -> 187 ;
188 [label="gini = 0.0\nsamples = 1\nvalue = [0, 0, 0, 0, 1, 0]"] ;
187 -> 188 ;
189 [label="gini = 0.0\nsamples = 2\nvalue = [0, 0, 2, 0, 0, 0]"] ;
187 -> 189 ;
190 [label="volatile acidity <= 0.31\ngini = 0.611\nsamples = 6\nvalue = [0, 0, 3, 2, 1, 0]"] ;
164 -> 190 ;
191 [label="chlorides <= 0.061\ngini = 0.444\nsamples = 3\nvalue = [0, 0, 0, 2, 1, 0]"] ;
190 -> 191 ;
192 [label="gini = 0.0\nsamples = 1\nvalue = [0, 0, 0, 0, 1, 0]"] ;
191 -> 192 ;
193 [label="gini = 0.0\nsamples = 2\nvalue = [0, 0, 0, 2, 0, 0]"] ;
191 -> 193 ;
194 [label="gini = 0.0\nsamples = 3\nvalue = [0, 0, 3, 0, 0, 0]"] ;
190 -> 194 ;
195 [label="gini = 0.0\nsamples = 2\nvalue = [0, 0, 0, 0, 2, 0]"] ;
163 -> 195 ;
196 [label="pH <= 3.025\ngini = 0.142\nsamples = 26\nvalue = [0, 0, 2, 24, 0, 0]"] ;
154 -> 196 ;
197 [label="gini = 0.0\nsamples = 1\nvalue = [0, 0, 1, 0, 0, 0]"] ;
196 -> 197 ;
198 [label="residual sugar <= 1.7\ngini = 0.077\nsamples = 25\nvalue = [0, 0, 1, 24, 0, 0]"] ;
196 -> 198 ;
199 [label="alcohol <= 9.55\ngini = 0.375\nsamples = 4\nvalue = [0, 0, 1, 3, 0, 0]"] ;
198 -> 199 ;
200 [label="gini = 0.0\nsamples = 1\nvalue = [0, 0, 1, 0, 0, 0]"] ;
199 -> 200 ;
201 [label="gini = 0.0\nsamples = 3\nvalue = [0, 0, 0, 3, 0, 0]"] ;
199 -> 201 ;
202 [label="gini = 0.0\nsamples = 21\nvalue = [0, 0, 0, 21, 0, 0]"] ;
198 -> 202 ;
203 [label="residual sugar <= 1.85\ngini = 0.593\nsamples = 27\nvalue = [0, 2, 15, 8, 2, 0]"] ;
153 -> 203 ;
204 [label="sulphates <= 1.17\ngini = 0.556\nsamples = 13\nvalue = [0, 1, 5, 7, 0, 0]"] ;
203 -> 204 ;
205 [label="residual sugar <= 1.65\ngini = 0.46\nsamples = 10\nvalue = [0, 1, 2, 7, 0, 0]"] ;
204 -> 205 ;
206 [label="chlorides <= 0.126\ngini = 0.5\nsamples = 2\nvalue = [0, 1, 1, 0, 0, 0]"] ;
205 -> 206 ;
207 [label="gini = 0.0\nsamples = 1\nvalue = [0, 0, 1, 0, 0, 0]"] ;
206 -> 207 ;
208 [label="gini = 0.0\nsamples = 1\nvalue = [0, 1, 0, 0, 0, 0]"] ;
206 -> 208 ;
209 [label="free sulfur dioxide <= 5.5\ngini = 0.219\nsamples = 8\nvalue = [0, 0, 1, 7, 0, 0]"] ;
205 -> 209 ;
210 [label="free sulfur dioxide <= 3.5\ngini = 0.5\nsamples = 2\nvalue = [0, 0, 1, 1, 0, 0]"] ;
209 -> 210 ;
211 [label="gini = 0.0\nsamples = 1\nvalue = [0, 0, 0, 1, 0, 0]"] ;
210 -> 211 ;
212 [label="gini = 0.0\nsamples = 1\nvalue = [0, 0, 1, 0, 0, 0]"] ;
210 -> 212 ;
213 [label="gini = 0.0\nsamples = 6\nvalue = [0, 0, 0, 6, 0, 0]"] ;
209 -> 213 ;
214 [label="gini = 0.0\nsamples = 3\nvalue = [0, 0, 3, 0, 0, 0]"] ;
204 -> 214 ;
215 [label="citric acid <= 0.625\ngini = 0.459\nsamples = 14\nvalue = [0, 1, 10, 1, 2, 0]"] ;
203 -> 215 ;
216 [label="fixed acidity <= 8.0\ngini = 0.18\nsamples = 10\nvalue = [0, 0, 9, 1, 0, 0]"] ;
215 -> 216 ;
217 [label="citric acid <= 0.16\ngini = 0.5\nsamples = 2\nvalue = [0, 0, 1, 1, 0, 0]"] ;
216 -> 217 ;
218 [label="gini = 0.0\nsamples = 1\nvalue = [0, 0, 1, 0, 0, 0]"] ;
217 -> 218 ;
219 [label="gini = 0.0\nsamples = 1\nvalue = [0, 0, 0, 1, 0, 0]"] ;
217 -> 219 ;
220 [label="gini = 0.0\nsamples = 8\nvalue = [0, 0, 8, 0, 0, 0]"] ;
216 -> 220 ;
221 [label="pH <= 3.14\ngini = 0.625\nsamples = 4\nvalue = [0, 1, 1, 0, 2, 0]"] ;
215 -> 221 ;
222 [label="free sulfur dioxide <= 27.0\ngini = 0.5\nsamples = 2\nvalue = [0, 1, 1, 0, 0, 0]"] ;
221 -> 222 ;
223 [label="gini = 0.0\nsamples = 1\nvalue = [0, 0, 1, 0, 0, 0]"] ;
222 -> 223 ;
224 [label="gini = 0.0\nsamples = 1\nvalue = [0, 1, 0, 0, 0, 0]"] ;
222 -> 224 ;
225 [label="gini = 0.0\nsamples = 2\nvalue = [0, 0, 0, 0, 2, 0]"] ;
221 -> 225 ;
226 [label="alcohol <= 9.85\ngini = 0.55\nsamples = 235\nvalue = [4, 9, 137, 77, 8, 0]"] ;
72 -> 226 ;
227 [label="alcohol <= 9.05\ngini = 0.483\nsamples = 147\nvalue = [3, 6, 98, 39, 1, 0]"] ;
226 -> 227 ;
228 [label="volatile acidity <= 0.625\ngini = 0.531\nsamples = 8\nvalue = [2, 0, 1, 5, 0, 0]"] ;
227 -> 228 ;
229 [label="residual sugar <= 1.95\ngini = 0.444\nsamples = 3\nvalue = [2, 0, 1, 0, 0, 0]"] ;
228 -> 229 ;
230 [label="gini = 0.0\nsamples = 1\nvalue = [0, 0, 1, 0, 0, 0]"] ;
229 -> 230 ;
231 [label="gini = 0.0\nsamples = 2\nvalue = [2, 0, 0, 0, 0, 0]"] ;
229 -> 231 ;
232 [label="gini = 0.0\nsamples = 5\nvalue = [0, 0, 0, 5, 0, 0]"] ;
228 -> 232 ;
233 [label="residual sugar <= 1.85\ngini = 0.451\nsamples = 139\nvalue = [1, 6, 97, 34, 1, 0]"] ;
227 -> 233 ;
234 [label="density <= 0.995\ngini = 0.246\nsamples = 43\nvalue = [0, 1, 37, 5, 0, 0]"] ;
233 -> 234 ;
235 [label="gini = 0.0\nsamples = 1\nvalue = [0, 0, 0, 1, 0, 0]"] ;
234 -> 235 ;
236 [label="fixed acidity <= 9.0\ngini = 0.214\nsamples = 42\nvalue = [0, 1, 37, 4, 0, 0]"] ;
234 -> 236 ;
237 [label="volatile acidity <= 0.555\ngini = 0.18\nsamples = 41\nvalue = [0, 1, 37, 3, 0, 0]"] ;
236 -> 237 ;
238 [label="gini = 0.0\nsamples = 1\nvalue = [0, 0, 0, 1, 0, 0]"] ;
237 -> 238 ;
239 [label="residual sugar <= 1.35\ngini = 0.141\nsamples = 40\nvalue = [0, 1, 37, 2, 0, 0]"] ;
237 -> 239 ;
240 [label="alcohol <= 9.5\ngini = 0.5\nsamples = 2\nvalue = [0, 1, 1, 0, 0, 0]"] ;
239 -> 240 ;
241 [label="gini = 0.0\nsamples = 1\nvalue = [0, 1, 0, 0, 0, 0]"] ;
240 -> 241 ;
242 [label="gini = 0.0\nsamples = 1\nvalue = [0, 0, 1, 0, 0, 0]"] ;
240 -> 242 ;
243 [label="volatile acidity <= 0.735\ngini = 0.1\nsamples = 38\nvalue = [0, 0, 36, 2, 0, 0]"] ;
239 -> 243 ;
244 [label="density <= 0.997\ngini = 0.057\nsamples = 34\nvalue = [0, 0, 33, 1, 0, 0]"] ;
243 -> 244 ;
245 [label="gini = 0.0\nsamples = 30\nvalue = [0, 0, 30, 0, 0, 0]"] ;
244 -> 245 ;
246 [label="volatile acidity <= 0.59\ngini = 0.375\nsamples = 4\nvalue = [0, 0, 3, 1, 0, 0]"] ;
244 -> 246 ;
247 [label="gini = 0.0\nsamples = 1\nvalue = [0, 0, 0, 1, 0, 0]"] ;
246 -> 247 ;
248 [label="gini = 0.0\nsamples = 3\nvalue = [0, 0, 3, 0, 0, 0]"] ;
246 -> 248 ;
249 [label="volatile acidity <= 0.762\ngini = 0.375\nsamples = 4\nvalue = [0, 0, 3, 1, 0, 0]"] ;
243 -> 249 ;
250 [label="gini = 0.0\nsamples = 1\nvalue = [0, 0, 0, 1, 0, 0]"] ;
249 -> 250 ;
251 [label="gini = 0.0\nsamples = 3\nvalue = [0, 0, 3, 0, 0, 0]"] ;
249 -> 251 ;
252 [label="gini = 0.0\nsamples = 1\nvalue = [0, 0, 0, 1, 0, 0]"] ;
236 -> 252 ;
253 [label="alcohol <= 9.55\ngini = 0.515\nsamples = 96\nvalue = [1, 5, 60, 29, 1, 0]"] ;
233 -> 253 ;
254 [label="sulphates <= 0.645\ngini = 0.558\nsamples = 58\nvalue = [0, 3, 30, 24, 1, 0]"] ;
253 -> 254 ;
255 [label="free sulfur dioxide <= 16.0\ngini = 0.509\nsamples = 40\nvalue = [0, 3, 26, 10, 1, 0]"] ;
254 -> 255 ;
256 [label="total sulfur dioxide <= 42.5\ngini = 0.617\nsamples = 27\nvalue = [0, 3, 13, 10, 1, 0]"] ;
255 -> 256 ;
257 [label="pH <= 3.3\ngini = 0.439\nsamples = 14\nvalue = [0, 0, 10, 3, 1, 0]"] ;
256 -> 257 ;
258 [label="gini = 0.0\nsamples = 8\nvalue = [0, 0, 8, 0, 0, 0]"] ;
257 -> 258 ;
259 [label="pH <= 3.44\ngini = 0.611\nsamples = 6\nvalue = [0, 0, 2, 3, 1, 0]"] ;
257 -> 259 ;
260 [label="total sulfur dioxide <= 21.0\ngini = 0.375\nsamples = 4\nvalue = [0, 0, 0, 3, 1, 0]"] ;
259 -> 260 ;
261 [label="gini = 0.0\nsamples = 1\nvalue = [0, 0, 0, 0, 1, 0]"] ;
260 -> 261 ;
262 [label="gini = 0.0\nsamples = 3\nvalue = [0, 0, 0, 3, 0, 0]"] ;
260 -> 262 ;
263 [label="gini = 0.0\nsamples = 2\nvalue = [0, 0, 2, 0, 0, 0]"] ;
259 -> 263 ;
264 [label="sulphates <= 0.625\ngini = 0.604\nsamples = 13\nvalue = [0, 3, 3, 7, 0, 0]"] ;
256 -> 264 ;
265 [label="total sulfur dioxide <= 44.0\ngini = 0.512\nsamples = 11\nvalue = [0, 3, 1, 7, 0, 0]"] ;
264 -> 265 ;
266 [label="gini = 0.0\nsamples = 1\nvalue = [0, 1, 0, 0, 0, 0]"] ;
265 -> 266 ;
267 [label="volatile acidity <= 0.845\ngini = 0.46\nsamples = 10\nvalue = [0, 2, 1, 7, 0, 0]"] ;
265 -> 267 ;
268 [label="fixed acidity <= 8.35\ngini = 0.37\nsamples = 9\nvalue = [0, 1, 1, 7, 0, 0]"] ;
267 -> 268 ;
269 [label="gini = 0.0\nsamples = 6\nvalue = [0, 0, 0, 6, 0, 0]"] ;
268 -> 269 ;
270 [label="volatile acidity <= 0.63\ngini = 0.667\nsamples = 3\nvalue = [0, 1, 1, 1, 0, 0]"] ;
268 -> 270 ;
271 [label="gini = 0.0\nsamples = 1\nvalue = [0, 0, 1, 0, 0, 0]"] ;
270 -> 271 ;
272 [label="free sulfur dioxide <= 11.5\ngini = 0.5\nsamples = 2\nvalue = [0, 1, 0, 1, 0, 0]"] ;
270 -> 272 ;
273 [label="gini = 0.0\nsamples = 1\nvalue = [0, 1, 0, 0, 0, 0]"] ;
272 -> 273 ;
274 [label="gini = 0.0\nsamples = 1\nvalue = [0, 0, 0, 1, 0, 0]"] ;
272 -> 274 ;
275 [label="gini = 0.0\nsamples = 1\nvalue = [0, 1, 0, 0, 0, 0]"] ;
267 -> 275 ;
276 [label="gini = 0.0\nsamples = 2\nvalue = [0, 0, 2, 0, 0, 0]"] ;
264 -> 276 ;
277 [label="gini = 0.0\nsamples = 13\nvalue = [0, 0, 13, 0, 0, 0]"] ;
255 -> 277 ;
278 [label="fixed acidity <= 6.7\ngini = 0.346\nsamples = 18\nvalue = [0, 0, 4, 14, 0, 0]"] ;
254 -> 278 ;
279 [label="gini = 0.0\nsamples = 2\nvalue = [0, 0, 2, 0, 0, 0]"] ;
278 -> 279 ;
280 [label="pH <= 3.28\ngini = 0.219\nsamples = 16\nvalue = [0, 0, 2, 14, 0, 0]"] ;
278 -> 280 ;
281 [label="pH <= 3.18\ngini = 0.48\nsamples = 5\nvalue = [0, 0, 2, 3, 0, 0]"] ;
280 -> 281 ;
282 [label="gini = 0.0\nsamples = 3\nvalue = [0, 0, 0, 3, 0, 0]"] ;
281 -> 282 ;
283 [label="gini = 0.0\nsamples = 2\nvalue = [0, 0, 2, 0, 0, 0]"] ;
281 -> 283 ;
284 [label="gini = 0.0\nsamples = 11\nvalue = [0, 0, 0, 11, 0, 0]"] ;
280 -> 284 ;
285 [label="volatile acidity <= 0.965\ngini = 0.356\nsamples = 38\nvalue = [1, 2, 30, 5, 0, 0]"] ;
253 -> 285 ;
286 [label="fixed acidity <= 10.2\ngini = 0.321\nsamples = 37\nvalue = [0, 2, 30, 5, 0, 0]"] ;
285 -> 286 ;
287 [label="density <= 1.0\ngini = 0.285\nsamples = 36\nvalue = [0, 1, 30, 5, 0, 0]"] ;
286 -> 287 ;
288 [label="free sulfur dioxide <= 4.0\ngini = 0.245\nsamples = 35\nvalue = [0, 0, 30, 5, 0, 0]"] ;
287 -> 288 ;
289 [label="gini = 0.0\nsamples = 1\nvalue = [0, 0, 0, 1, 0, 0]"] ;
288 -> 289 ;
290 [label="density <= 0.996\ngini = 0.208\nsamples = 34\nvalue = [0, 0, 30, 4, 0, 0]"] ;
288 -> 290 ;
291 [label="residual sugar <= 2.1\ngini = 0.5\nsamples = 2\nvalue = [0, 0, 1, 1, 0, 0]"] ;
290 -> 291 ;
292 [label="gini = 0.0\nsamples = 1\nvalue = [0, 0, 1, 0, 0, 0]"] ;
291 -> 292 ;
293 [label="gini = 0.0\nsamples = 1\nvalue = [0, 0, 0, 1, 0, 0]"] ;
291 -> 293 ;
294 [label="density <= 0.997\ngini = 0.17\nsamples = 32\nvalue = [0, 0, 29, 3, 0, 0]"] ;
290 -> 294 ;
295 [label="gini = 0.0\nsamples = 15\nvalue = [0, 0, 15, 0, 0, 0]"] ;
294 -> 295 ;
296 [label="density <= 0.998\ngini = 0.291\nsamples = 17\nvalue = [0, 0, 14, 3, 0, 0]"] ;
294 -> 296 ;
297 [label="chlorides <= 0.077\ngini = 0.375\nsamples = 4\nvalue = [0, 0, 1, 3, 0, 0]"] ;
296 -> 297 ;
298 [label="gini = 0.0\nsamples = 1\nvalue = [0, 0, 1, 0, 0, 0]"] ;
297 -> 298 ;
299 [label="gini = 0.0\nsamples = 3\nvalue = [0, 0, 0, 3, 0, 0]"] ;
297 -> 299 ;
300 [label="gini = 0.0\nsamples = 13\nvalue = [0, 0, 13, 0, 0, 0]"] ;
296 -> 300 ;
301 [label="gini = 0.0\nsamples = 1\nvalue = [0, 1, 0, 0, 0, 0]"] ;
287 -> 301 ;
302 [label="gini = 0.0\nsamples = 1\nvalue = [0, 1, 0, 0, 0, 0]"] ;
286 -> 302 ;
303 [label="gini = 0.0\nsamples = 1\nvalue = [1, 0, 0, 0, 0, 0]"] ;
285 -> 303 ;
304 [label="total sulfur dioxide <= 19.5\ngini = 0.61\nsamples = 88\nvalue = [1, 3, 39, 38, 7, 0]"] ;
226 -> 304 ;
305 [label="alcohol <= 10.45\ngini = 0.653\nsamples = 14\nvalue = [1, 1, 1, 7, 4, 0]"] ;
304 -> 305 ;
306 [label="total sulfur dioxide <= 14.0\ngini = 0.562\nsamples = 11\nvalue = [1, 1, 1, 7, 1, 0]"] ;
305 -> 306 ;
307 [label="pH <= 3.235\ngini = 0.8\nsamples = 5\nvalue = [1, 1, 1, 1, 1, 0]"] ;
306 -> 307 ;
308 [label="gini = 0.0\nsamples = 1\nvalue = [0, 0, 0, 1, 0, 0]"] ;
307 -> 308 ;
309 [label="volatile acidity <= 0.63\ngini = 0.75\nsamples = 4\nvalue = [1, 1, 1, 0, 1, 0]"] ;
307 -> 309 ;
310 [label="gini = 0.0\nsamples = 1\nvalue = [0, 1, 0, 0, 0, 0]"] ;
309 -> 310 ;
311 [label="density <= 0.997\ngini = 0.667\nsamples = 3\nvalue = [1, 0, 1, 0, 1, 0]"] ;
309 -> 311 ;
312 [label="gini = 0.0\nsamples = 1\nvalue = [1, 0, 0, 0, 0, 0]"] ;
311 -> 312 ;
313 [label="residual sugar <= 4.5\ngini = 0.5\nsamples = 2\nvalue = [0, 0, 1, 0, 1, 0]"] ;
311 -> 313 ;
314 [label="gini = 0.0\nsamples = 1\nvalue = [0, 0, 1, 0, 0, 0]"] ;
313 -> 314 ;
315 [label="gini = 0.0\nsamples = 1\nvalue = [0, 0, 0, 0, 1, 0]"] ;
313 -> 315 ;
316 [label="gini = 0.0\nsamples = 6\nvalue = [0, 0, 0, 6, 0, 0]"] ;
306 -> 316 ;
317 [label="gini = 0.0\nsamples = 3\nvalue = [0, 0, 0, 0, 3, 0]"] ;
305 -> 317 ;
318 [label="total sulfur dioxide <= 28.5\ngini = 0.558\nsamples = 74\nvalue = [0, 2, 38, 31, 3, 0]"] ;
304 -> 318 ;
319 [label="chlorides <= 0.082\ngini = 0.44\nsamples = 29\nvalue = [0, 1, 21, 5, 2, 0]"] ;
318 -> 319 ;
320 [label="residual sugar <= 1.55\ngini = 0.111\nsamples = 17\nvalue = [0, 1, 16, 0, 0, 0]"] ;
319 -> 320 ;
321 [label="gini = 0.0\nsamples = 1\nvalue = [0, 1, 0, 0, 0, 0]"] ;
320 -> 321 ;
322 [label="gini = 0.0\nsamples = 16\nvalue = [0, 0, 16, 0, 0, 0]"] ;
320 -> 322 ;
323 [label="volatile acidity <= 0.665\ngini = 0.625\nsamples = 12\nvalue = [0, 0, 5, 5, 2, 0]"] ;
319 -> 323 ;
324 [label="density <= 0.998\ngini = 0.449\nsamples = 7\nvalue = [0, 0, 1, 5, 1, 0]"] ;
323 -> 324 ;
325 [label="fixed acidity <= 7.15\ngini = 0.278\nsamples = 6\nvalue = [0, 0, 0, 5, 1, 0]"] ;
324 -> 325 ;
326 [label="gini = 0.0\nsamples = 1\nvalue = [0, 0, 0, 0, 1, 0]"] ;
325 -> 326 ;
327 [label="gini = 0.0\nsamples = 5\nvalue = [0, 0, 0, 5, 0, 0]"] ;
325 -> 327 ;
328 [label="gini = 0.0\nsamples = 1\nvalue = [0, 0, 1, 0, 0, 0]"] ;
324 -> 328 ;
329 [label="chlorides <= 0.125\ngini = 0.32\nsamples = 5\nvalue = [0, 0, 4, 0, 1, 0]"] ;
323 -> 329 ;
330 [label="gini = 0.0\nsamples = 4\nvalue = [0, 0, 4, 0, 0, 0]"] ;
329 -> 330 ;
331 [label="gini = 0.0\nsamples = 1\nvalue = [0, 0, 0, 0, 1, 0]"] ;
329 -> 331 ;
332 [label="sulphates <= 0.655\ngini = 0.522\nsamples = 45\nvalue = [0, 1, 17, 26, 1, 0]"] ;
318 -> 332 ;
333 [label="sulphates <= 0.545\ngini = 0.438\nsamples = 30\nvalue = [0, 1, 8, 21, 0, 0]"] ;
332 -> 333 ;
334 [label="gini = 0.0\nsamples = 2\nvalue = [0, 0, 2, 0, 0, 0]"] ;
333 -> 334 ;
335 [label="pH <= 3.415\ngini = 0.39\nsamples = 28\nvalue = [0, 1, 6, 21, 0, 0]"] ;
333 -> 335 ;
336 [label="free sulfur dioxide <= 9.5\ngini = 0.299\nsamples = 23\nvalue = [0, 1, 3, 19, 0, 0]"] ;
335 -> 336 ;
337 [label="citric acid <= 0.12\ngini = 0.444\nsamples = 3\nvalue = [0, 0, 2, 1, 0, 0]"] ;
336 -> 337 ;
338 [label="gini = 0.0\nsamples = 1\nvalue = [0, 0, 0, 1, 0, 0]"] ;
337 -> 338 ;
339 [label="gini = 0.0\nsamples = 2\nvalue = [0, 0, 2, 0, 0, 0]"] ;
337 -> 339 ;
340 [label="residual sugar <= 2.05\ngini = 0.185\nsamples = 20\nvalue = [0, 1, 1, 18, 0, 0]"] ;
336 -> 340 ;
341 [label="density <= 0.997\ngini = 0.5\nsamples = 6\nvalue = [0, 1, 1, 4, 0, 0]"] ;
340 -> 341 ;
342 [label="gini = 0.0\nsamples = 4\nvalue = [0, 0, 0, 4, 0, 0]"] ;
341 -> 342 ;
343 [label="alcohol <= 10.2\ngini = 0.5\nsamples = 2\nvalue = [0, 1, 1, 0, 0, 0]"] ;
341 -> 343 ;
344 [label="gini = 0.0\nsamples = 1\nvalue = [0, 0, 1, 0, 0, 0]"] ;
343 -> 344 ;
345 [label="gini = 0.0\nsamples = 1\nvalue = [0, 1, 0, 0, 0, 0]"] ;
343 -> 345 ;
346 [label="gini = 0.0\nsamples = 14\nvalue = [0, 0, 0, 14, 0, 0]"] ;
340 -> 346 ;
347 [label="pH <= 3.465\ngini = 0.48\nsamples = 5\nvalue = [0, 0, 3, 2, 0, 0]"] ;
335 -> 347 ;
348 [label="gini = 0.0\nsamples = 3\nvalue = [0, 0, 3, 0, 0, 0]"] ;
347 -> 348 ;
349 [label="gini = 0.0\nsamples = 2\nvalue = [0, 0, 0, 2, 0, 0]"] ;
347 -> 349 ;
350 [label="chlorides <= 0.08\ngini = 0.524\nsamples = 15\nvalue = [0, 0, 9, 5, 1, 0]"] ;
332 -> 350 ;
351 [label="sulphates <= 0.69\ngini = 0.32\nsamples = 5\nvalue = [0, 0, 1, 4, 0, 0]"] ;
350 -> 351 ;
352 [label="gini = 0.0\nsamples = 1\nvalue = [0, 0, 1, 0, 0, 0]"] ;
351 -> 352 ;
353 [label="gini = 0.0\nsamples = 4\nvalue = [0, 0, 0, 4, 0, 0]"] ;
351 -> 353 ;
354 [label="density <= 1.0\ngini = 0.34\nsamples = 10\nvalue = [0, 0, 8, 1, 1, 0]"] ;
350 -> 354 ;
355 [label="gini = 0.0\nsamples = 8\nvalue = [0, 0, 8, 0, 0, 0]"] ;
354 -> 355 ;
356 [label="alcohol <= 9.95\ngini = 0.5\nsamples = 2\nvalue = [0, 0, 0, 1, 1, 0]"] ;
354 -> 356 ;
357 [label="gini = 0.0\nsamples = 1\nvalue = [0, 0, 0, 1, 0, 0]"] ;
356 -> 357 ;
358 [label="gini = 0.0\nsamples = 1\nvalue = [0, 0, 0, 0, 1, 0]"] ;
356 -> 358 ;
359 [label="pH <= 3.54\ngini = 0.276\nsamples = 160\nvalue = [0, 2, 134, 24, 0, 0]"] ;
1 -> 359 ;
360 [label="pH <= 2.935\ngini = 0.245\nsamples = 155\nvalue = [0, 1, 133, 21, 0, 0]"] ;
359 -> 360 ;
361 [label="alcohol <= 9.85\ngini = 0.375\nsamples = 4\nvalue = [0, 0, 1, 3, 0, 0]"] ;
360 -> 361 ;
362 [label="gini = 0.0\nsamples = 1\nvalue = [0, 0, 1, 0, 0, 0]"] ;
361 -> 362 ;
363 [label="gini = 0.0\nsamples = 3\nvalue = [0, 0, 0, 3, 0, 0]"] ;
361 -> 363 ;
364 [label="residual sugar <= 10.75\ngini = 0.222\nsamples = 151\nvalue = [0, 1, 132, 18, 0, 0]"] ;
360 -> 364 ;
365 [label="total sulfur dioxide <= 109.5\ngini = 0.204\nsamples = 149\nvalue = [0, 1, 132, 16, 0, 0]"] ;
364 -> 365 ;
366 [label="citric acid <= 0.315\ngini = 0.306\nsamples = 85\nvalue = [0, 0, 69, 16, 0, 0]"] ;
365 -> 366 ;
367 [label="free sulfur dioxide <= 23.5\ngini = 0.375\nsamples = 60\nvalue = [0, 0, 45, 15, 0, 0]"] ;
366 -> 367 ;
368 [label="pH <= 3.49\ngini = 0.456\nsamples = 37\nvalue = [0, 0, 24, 13, 0, 0]"] ;
367 -> 368 ;
369 [label="chlorides <= 0.099\ngini = 0.495\nsamples = 29\nvalue = [0, 0, 16, 13, 0, 0]"] ;
368 -> 369 ;
370 [label="total sulfur dioxide <= 99.5\ngini = 0.491\nsamples = 23\nvalue = [0, 0, 10, 13, 0, 0]"] ;
369 -> 370 ;
371 [label="sulphates <= 0.5\ngini = 0.337\nsamples = 14\nvalue = [0, 0, 3, 11, 0, 0]"] ;
370 -> 371 ;
372 [label="gini = 0.0\nsamples = 2\nvalue = [0, 0, 2, 0, 0, 0]"] ;
371 -> 372 ;
373 [label="density <= 0.998\ngini = 0.153\nsamples = 12\nvalue = [0, 0, 1, 11, 0, 0]"] ;
371 -> 373 ;
374 [label="gini = 0.0\nsamples = 11\nvalue = [0, 0, 0, 11, 0, 0]"] ;
373 -> 374 ;
375 [label="gini = 0.0\nsamples = 1\nvalue = [0, 0, 1, 0, 0, 0]"] ;
373 -> 375 ;
376 [label="volatile acidity <= 0.55\ngini = 0.346\nsamples = 9\nvalue = [0, 0, 7, 2, 0, 0]"] ;
370 -> 376 ;
377 [label="gini = 0.0\nsamples = 2\nvalue = [0, 0, 0, 2, 0, 0]"] ;
376 -> 377 ;
378 [label="gini = 0.0\nsamples = 7\nvalue = [0, 0, 7, 0, 0, 0]"] ;
376 -> 378 ;
379 [label="gini = 0.0\nsamples = 6\nvalue = [0, 0, 6, 0, 0, 0]"] ;
369 -> 379 ;
380 [label="gini = 0.0\nsamples = 8\nvalue = [0, 0, 8, 0, 0, 0]"] ;
368 -> 380 ;
381 [label="pH <= 3.11\ngini = 0.159\nsamples = 23\nvalue = [0, 0, 21, 2, 0, 0]"] ;
367 -> 381 ;
382 [label="gini = 0.0\nsamples = 1\nvalue = [0, 0, 0, 1, 0, 0]"] ;
381 -> 382 ;
383 [label="sulphates <= 0.475\ngini = 0.087\nsamples = 22\nvalue = [0, 0, 21, 1, 0, 0]"] ;
381 -> 383 ;
384 [label="pH <= 3.25\ngini = 0.444\nsamples = 3\nvalue = [0, 0, 2, 1, 0, 0]"] ;
383 -> 384 ;
385 [label="gini = 0.0\nsamples = 2\nvalue = [0, 0, 2, 0, 0, 0]"] ;
384 -> 385 ;
386 [label="gini = 0.0\nsamples = 1\nvalue = [0, 0, 0, 1, 0, 0]"] ;
384 -> 386 ;
387 [label="gini = 0.0\nsamples = 19\nvalue = [0, 0, 19, 0, 0, 0]"] ;
383 -> 387 ;
388 [label="pH <= 3.365\ngini = 0.077\nsamples = 25\nvalue = [0, 0, 24, 1, 0, 0]"] ;
366 -> 388 ;
389 [label="gini = 0.0\nsamples = 21\nvalue = [0, 0, 21, 0, 0, 0]"] ;
388 -> 389 ;
390 [label="citric acid <= 0.335\ngini = 0.375\nsamples = 4\nvalue = [0, 0, 3, 1, 0, 0]"] ;
388 -> 390 ;
391 [label="gini = 0.0\nsamples = 3\nvalue = [0, 0, 3, 0, 0, 0]"] ;
390 -> 391 ;
392 [label="gini = 0.0\nsamples = 1\nvalue = [0, 0, 0, 1, 0, 0]"] ;
390 -> 392 ;
393 [label="residual sugar <= 1.6\ngini = 0.031\nsamples = 64\nvalue = [0, 1, 63, 0, 0, 0]"] ;
365 -> 393 ;
394 [label="gini = 0.0\nsamples = 1\nvalue = [0, 1, 0, 0, 0, 0]"] ;
393 -> 394 ;
395 [label="gini = 0.0\nsamples = 63\nvalue = [0, 0, 63, 0, 0, 0]"] ;
393 -> 395 ;
396 [label="gini = 0.0\nsamples = 2\nvalue = [0, 0, 0, 2, 0, 0]"] ;
364 -> 396 ;
397 [label="alcohol <= 9.75\ngini = 0.56\nsamples = 5\nvalue = [0, 1, 1, 3, 0, 0]"] ;
359 -> 397 ;
398 [label="gini = 0.0\nsamples = 3\nvalue = [0, 0, 0, 3, 0, 0]"] ;
397 -> 398 ;
399 [label="citric acid <= 0.025\ngini = 0.5\nsamples = 2\nvalue = [0, 1, 1, 0, 0, 0]"] ;
397 -> 399 ;
400 [label="gini = 0.0\nsamples = 1\nvalue = [0, 0, 1, 0, 0, 0]"] ;
399 -> 400 ;
401 [label="gini = 0.0\nsamples = 1\nvalue = [0, 1, 0, 0, 0, 0]"] ;
399 -> 401 ;
402 [label="volatile acidity <= 0.415\ngini = 0.642\nsamples = 481\nvalue = [2, 16, 83, 244, 127, 9]"] ;
0 -> 402 [labeldistance=2.5, labelangle=-45, headlabel="False"] ;
403 [label="total sulfur dioxide <= 49.5\ngini = 0.621\nsamples = 214\nvalue = [0, 3, 24, 93, 90, 4]"] ;
402 -> 403 ;
404 [label="sulphates <= 0.575\ngini = 0.592\nsamples = 164\nvalue = [0, 2, 12, 64, 82, 4]"] ;
403 -> 404 ;
405 [label="volatile acidity <= 0.385\ngini = 0.441\nsamples = 28\nvalue = [0, 1, 1, 20, 6, 0]"] ;
404 -> 405 ;
406 [label="residual sugar <= 1.95\ngini = 0.278\nsamples = 24\nvalue = [0, 0, 0, 20, 4, 0]"] ;
405 -> 406 ;
407 [label="sulphates <= 0.53\ngini = 0.463\nsamples = 11\nvalue = [0, 0, 0, 7, 4, 0]"] ;
406 -> 407 ;
408 [label="gini = 0.0\nsamples = 5\nvalue = [0, 0, 0, 5, 0, 0]"] ;
407 -> 408 ;
409 [label="free sulfur dioxide <= 8.0\ngini = 0.444\nsamples = 6\nvalue = [0, 0, 0, 2, 4, 0]"] ;
407 -> 409 ;
410 [label="gini = 0.0\nsamples = 4\nvalue = [0, 0, 0, 0, 4, 0]"] ;
409 -> 410 ;
411 [label="gini = 0.0\nsamples = 2\nvalue = [0, 0, 0, 2, 0, 0]"] ;
409 -> 411 ;
412 [label="gini = 0.0\nsamples = 13\nvalue = [0, 0, 0, 13, 0, 0]"] ;
406 -> 412 ;
413 [label="free sulfur dioxide <= 5.5\ngini = 0.625\nsamples = 4\nvalue = [0, 1, 1, 0, 2, 0]"] ;
405 -> 413 ;
414 [label="free sulfur dioxide <= 4.0\ngini = 0.5\nsamples = 2\nvalue = [0, 1, 1, 0, 0, 0]"] ;
413 -> 414 ;
415 [label="gini = 0.0\nsamples = 1\nvalue = [0, 1, 0, 0, 0, 0]"] ;
414 -> 415 ;
416 [label="gini = 0.0\nsamples = 1\nvalue = [0, 0, 1, 0, 0, 0]"] ;
414 -> 416 ;
417 [label="gini = 0.0\nsamples = 2\nvalue = [0, 0, 0, 0, 2, 0]"] ;
413 -> 417 ;
418 [label="chlorides <= 0.111\ngini = 0.576\nsamples = 136\nvalue = [0, 1, 11, 44, 76, 4]"] ;
404 -> 418 ;
419 [label="density <= 0.995\ngini = 0.56\nsamples = 126\nvalue = [0, 1, 11, 35, 75, 4]"] ;
418 -> 419 ;
420 [label="free sulfur dioxide <= 3.5\ngini = 0.388\nsamples = 50\nvalue = [0, 1, 0, 9, 38, 2]"] ;
419 -> 420 ;
421 [label="gini = 0.0\nsamples = 2\nvalue = [0, 0, 0, 2, 0, 0]"] ;
420 -> 421 ;
422 [label="volatile acidity <= 0.385\ngini = 0.35\nsamples = 48\nvalue = [0, 1, 0, 7, 38, 2]"] ;
420 -> 422 ;
423 [label="pH <= 3.125\ngini = 0.193\nsamples = 38\nvalue = [0, 0, 0, 3, 34, 1]"] ;
422 -> 423 ;
424 [label="gini = 0.0\nsamples = 1\nvalue = [0, 0, 0, 1, 0, 0]"] ;
423 -> 424 ;
425 [label="citric acid <= 0.31\ngini = 0.152\nsamples = 37\nvalue = [0, 0, 0, 2, 34, 1]"] ;
423 -> 425 ;
426 [label="chlorides <= 0.068\ngini = 0.5\nsamples = 2\nvalue = [0, 0, 0, 0, 1, 1]"] ;
425 -> 426 ;
427 [label="gini = 0.0\nsamples = 1\nvalue = [0, 0, 0, 0, 1, 0]"] ;
426 -> 427 ;
428 [label="gini = 0.0\nsamples = 1\nvalue = [0, 0, 0, 0, 0, 1]"] ;
426 -> 428 ;
429 [label="residual sugar <= 1.55\ngini = 0.108\nsamples = 35\nvalue = [0, 0, 0, 2, 33, 0]"] ;
425 -> 429 ;
430 [label="citric acid <= 0.43\ngini = 0.5\nsamples = 2\nvalue = [0, 0, 0, 1, 1, 0]"] ;
429 -> 430 ;
431 [label="gini = 0.0\nsamples = 1\nvalue = [0, 0, 0, 1, 0, 0]"] ;
430 -> 431 ;
432 [label="gini = 0.0\nsamples = 1\nvalue = [0, 0, 0, 0, 1, 0]"] ;
430 -> 432 ;
433 [label="sulphates <= 0.61\ngini = 0.059\nsamples = 33\nvalue = [0, 0, 0, 1, 32, 0]"] ;
429 -> 433 ;
434 [label="total sulfur dioxide <= 26.5\ngini = 0.444\nsamples = 3\nvalue = [0, 0, 0, 1, 2, 0]"] ;
433 -> 434 ;
435 [label="gini = 0.0\nsamples = 1\nvalue = [0, 0, 0, 1, 0, 0]"] ;
434 -> 435 ;
436 [label="gini = 0.0\nsamples = 2\nvalue = [0, 0, 0, 0, 2, 0]"] ;
434 -> 436 ;
437 [label="gini = 0.0\nsamples = 30\nvalue = [0, 0, 0, 0, 30, 0]"] ;
433 -> 437 ;
438 [label="density <= 0.995\ngini = 0.66\nsamples = 10\nvalue = [0, 1, 0, 4, 4, 1]"] ;
422 -> 438 ;
439 [label="chlorides <= 0.07\ngini = 0.612\nsamples = 7\nvalue = [0, 1, 0, 4, 1, 1]"] ;
438 -> 439 ;
440 [label="gini = 0.0\nsamples = 4\nvalue = [0, 0, 0, 4, 0, 0]"] ;
439 -> 440 ;
441 [label="density <= 0.994\ngini = 0.667\nsamples = 3\nvalue = [0, 1, 0, 0, 1, 1]"] ;
439 -> 441 ;
442 [label="gini = 0.0\nsamples = 1\nvalue = [0, 0, 0, 0, 1, 0]"] ;
441 -> 442 ;
443 [label="chlorides <= 0.087\ngini = 0.5\nsamples = 2\nvalue = [0, 1, 0, 0, 0, 1]"] ;
441 -> 443 ;
444 [label="gini = 0.0\nsamples = 1\nvalue = [0, 0, 0, 0, 0, 1]"] ;
443 -> 444 ;
445 [label="gini = 0.0\nsamples = 1\nvalue = [0, 1, 0, 0, 0, 0]"] ;
443 -> 445 ;
446 [label="gini = 0.0\nsamples = 3\nvalue = [0, 0, 0, 0, 3, 0]"] ;
438 -> 446 ;
447 [label="fixed acidity <= 8.7\ngini = 0.624\nsamples = 76\nvalue = [0, 0, 11, 26, 37, 2]"] ;
419 -> 447 ;
448 [label="sulphates <= 0.685\ngini = 0.605\nsamples = 20\nvalue = [0, 0, 7, 10, 3, 0]"] ;
447 -> 448 ;
449 [label="density <= 0.996\ngini = 0.346\nsamples = 9\nvalue = [0, 0, 7, 2, 0, 0]"] ;
448 -> 449 ;
450 [label="fixed acidity <= 8.0\ngini = 0.444\nsamples = 3\nvalue = [0, 0, 1, 2, 0, 0]"] ;
449 -> 450 ;
451 [label="gini = 0.0\nsamples = 2\nvalue = [0, 0, 0, 2, 0, 0]"] ;
450 -> 451 ;
452 [label="gini = 0.0\nsamples = 1\nvalue = [0, 0, 1, 0, 0, 0]"] ;
450 -> 452 ;
453 [label="gini = 0.0\nsamples = 6\nvalue = [0, 0, 6, 0, 0, 0]"] ;
449 -> 453 ;
454 [label="total sulfur dioxide <= 20.5\ngini = 0.397\nsamples = 11\nvalue = [0, 0, 0, 8, 3, 0]"] ;
448 -> 454 ;
455 [label="gini = 0.0\nsamples = 2\nvalue = [0, 0, 0, 0, 2, 0]"] ;
454 -> 455 ;
456 [label="total sulfur dioxide <= 48.0\ngini = 0.198\nsamples = 9\nvalue = [0, 0, 0, 8, 1, 0]"] ;
454 -> 456 ;
457 [label="gini = 0.0\nsamples = 8\nvalue = [0, 0, 0, 8, 0, 0]"] ;
456 -> 457 ;
458 [label="gini = 0.0\nsamples = 1\nvalue = [0, 0, 0, 0, 1, 0]"] ;
456 -> 458 ;
459 [label="pH <= 3.015\ngini = 0.543\nsamples = 56\nvalue = [0, 0, 4, 16, 34, 2]"] ;
447 -> 459 ;
460 [label="gini = 0.0\nsamples = 2\nvalue = [0, 0, 0, 2, 0, 0]"] ;
459 -> 460 ;
461 [label="chlorides <= 0.071\ngini = 0.529\nsamples = 54\nvalue = [0, 0, 4, 14, 34, 2]"] ;
459 -> 461 ;
462 [label="pH <= 3.295\ngini = 0.643\nsamples = 23\nvalue = [0, 0, 2, 9, 10, 2]"] ;
461 -> 462 ;
463 [label="chlorides <= 0.069\ngini = 0.581\nsamples = 17\nvalue = [0, 0, 1, 4, 10, 2]"] ;
462 -> 463 ;
464 [label="volatile acidity <= 0.395\ngini = 0.439\nsamples = 14\nvalue = [0, 0, 1, 3, 10, 0]"] ;
463 -> 464 ;
465 [label="alcohol <= 10.8\ngini = 0.379\nsamples = 13\nvalue = [0, 0, 1, 2, 10, 0]"] ;
464 -> 465 ;
466 [label="sulphates <= 0.825\ngini = 0.64\nsamples = 5\nvalue = [0, 0, 1, 2, 2, 0]"] ;
465 -> 466 ;
467 [label="chlorides <= 0.06\ngini = 0.444\nsamples = 3\nvalue = [0, 0, 1, 0, 2, 0]"] ;
466 -> 467 ;
468 [label="gini = 0.0\nsamples = 2\nvalue = [0, 0, 0, 0, 2, 0]"] ;
467 -> 468 ;
469 [label="gini = 0.0\nsamples = 1\nvalue = [0, 0, 1, 0, 0, 0]"] ;
467 -> 469 ;
470 [label="gini = 0.0\nsamples = 2\nvalue = [0, 0, 0, 2, 0, 0]"] ;
466 -> 470 ;
471 [label="gini = 0.0\nsamples = 8\nvalue = [0, 0, 0, 0, 8, 0]"] ;
465 -> 471 ;
472 [label="gini = 0.0\nsamples = 1\nvalue = [0, 0, 0, 1, 0, 0]"] ;
464 -> 472 ;
473 [label="pH <= 3.13\ngini = 0.444\nsamples = 3\nvalue = [0, 0, 0, 1, 0, 2]"] ;
463 -> 473 ;
474 [label="gini = 0.0\nsamples = 1\nvalue = [0, 0, 0, 1, 0, 0]"] ;
473 -> 474 ;
475 [label="gini = 0.0\nsamples = 2\nvalue = [0, 0, 0, 0, 0, 2]"] ;
473 -> 475 ;
476 [label="fixed acidity <= 9.0\ngini = 0.278\nsamples = 6\nvalue = [0, 0, 1, 5, 0, 0]"] ;
462 -> 476 ;
477 [label="gini = 0.0\nsamples = 1\nvalue = [0, 0, 1, 0, 0, 0]"] ;
476 -> 477 ;
478 [label="gini = 0.0\nsamples = 5\nvalue = [0, 0, 0, 5, 0, 0]"] ;
476 -> 478 ;
479 [label="free sulfur dioxide <= 13.0\ngini = 0.37\nsamples = 31\nvalue = [0, 0, 2, 5, 24, 0]"] ;
461 -> 479 ;
480 [label="pH <= 3.19\ngini = 0.272\nsamples = 26\nvalue = [0, 0, 2, 2, 22, 0]"] ;
479 -> 480 ;
481 [label="total sulfur dioxide <= 24.5\ngini = 0.593\nsamples = 9\nvalue = [0, 0, 2, 2, 5, 0]"] ;
480 -> 481 ;
482 [label="density <= 0.998\ngini = 0.444\nsamples = 6\nvalue = [0, 0, 0, 2, 4, 0]"] ;
481 -> 482 ;
483 [label="gini = 0.0\nsamples = 4\nvalue = [0, 0, 0, 0, 4, 0]"] ;
482 -> 483 ;
484 [label="gini = 0.0\nsamples = 2\nvalue = [0, 0, 0, 2, 0, 0]"] ;
482 -> 484 ;
485 [label="free sulfur dioxide <= 11.5\ngini = 0.444\nsamples = 3\nvalue = [0, 0, 2, 0, 1, 0]"] ;
481 -> 485 ;
486 [label="gini = 0.0\nsamples = 2\nvalue = [0, 0, 2, 0, 0, 0]"] ;
485 -> 486 ;
487 [label="gini = 0.0\nsamples = 1\nvalue = [0, 0, 0, 0, 1, 0]"] ;
485 -> 487 ;
488 [label="gini = 0.0\nsamples = 17\nvalue = [0, 0, 0, 0, 17, 0]"] ;
480 -> 488 ;
489 [label="total sulfur dioxide <= 42.0\ngini = 0.48\nsamples = 5\nvalue = [0, 0, 0, 3, 2, 0]"] ;
479 -> 489 ;
490 [label="gini = 0.0\nsamples = 3\nvalue = [0, 0, 0, 3, 0, 0]"] ;
489 -> 490 ;
491 [label="gini = 0.0\nsamples = 2\nvalue = [0, 0, 0, 0, 2, 0]"] ;
489 -> 491 ;
492 [label="pH <= 3.165\ngini = 0.18\nsamples = 10\nvalue = [0, 0, 0, 9, 1, 0]"] ;
418 -> 492 ;
493 [label="gini = 0.0\nsamples = 1\nvalue = [0, 0, 0, 0, 1, 0]"] ;
492 -> 493 ;
494 [label="gini = 0.0\nsamples = 9\nvalue = [0, 0, 0, 9, 0, 0]"] ;
492 -> 494 ;
495 [label="density <= 0.997\ngini = 0.58\nsamples = 50\nvalue = [0, 1, 12, 29, 8, 0]"] ;
403 -> 495 ;
496 [label="residual sugar <= 6.3\ngini = 0.49\nsamples = 41\nvalue = [0, 1, 6, 28, 6, 0]"] ;
495 -> 496 ;
497 [label="sulphates <= 0.415\ngini = 0.421\nsamples = 38\nvalue = [0, 0, 6, 28, 4, 0]"] ;
496 -> 497 ;
498 [label="gini = 0.0\nsamples = 2\nvalue = [0, 0, 0, 0, 2, 0]"] ;
497 -> 498 ;
499 [label="sulphates <= 0.86\ngini = 0.364\nsamples = 36\nvalue = [0, 0, 6, 28, 2, 0]"] ;
497 -> 499 ;
500 [label="alcohol <= 11.3\ngini = 0.231\nsamples = 31\nvalue = [0, 0, 3, 27, 1, 0]"] ;
499 -> 500 ;
501 [label="sulphates <= 0.695\ngini = 0.439\nsamples = 14\nvalue = [0, 0, 3, 10, 1, 0]"] ;
500 -> 501 ;
502 [label="chlorides <= 0.087\ngini = 0.48\nsamples = 5\nvalue = [0, 0, 3, 2, 0, 0]"] ;
501 -> 502 ;
503 [label="gini = 0.0\nsamples = 3\nvalue = [0, 0, 3, 0, 0, 0]"] ;
502 -> 503 ;
504 [label="gini = 0.0\nsamples = 2\nvalue = [0, 0, 0, 2, 0, 0]"] ;
502 -> 504 ;
505 [label="sulphates <= 0.805\ngini = 0.198\nsamples = 9\nvalue = [0, 0, 0, 8, 1, 0]"] ;
501 -> 505 ;
506 [label="gini = 0.0\nsamples = 7\nvalue = [0, 0, 0, 7, 0, 0]"] ;
505 -> 506 ;
507 [label="pH <= 3.225\ngini = 0.5\nsamples = 2\nvalue = [0, 0, 0, 1, 1, 0]"] ;
505 -> 507 ;
508 [label="gini = 0.0\nsamples = 1\nvalue = [0, 0, 0, 0, 1, 0]"] ;
507 -> 508 ;
509 [label="gini = 0.0\nsamples = 1\nvalue = [0, 0, 0, 1, 0, 0]"] ;
507 -> 509 ;
510 [label="gini = 0.0\nsamples = 17\nvalue = [0, 0, 0, 17, 0, 0]"] ;
500 -> 510 ;
511 [label="sulphates <= 0.9\ngini = 0.56\nsamples = 5\nvalue = [0, 0, 3, 1, 1, 0]"] ;
499 -> 511 ;
512 [label="gini = 0.0\nsamples = 1\nvalue = [0, 0, 0, 0, 1, 0]"] ;
511 -> 512 ;
513 [label="volatile acidity <= 0.365\ngini = 0.375\nsamples = 4\nvalue = [0, 0, 3, 1, 0, 0]"] ;
511 -> 513 ;
514 [label="gini = 0.0\nsamples = 3\nvalue = [0, 0, 3, 0, 0, 0]"] ;
513 -> 514 ;
515 [label="gini = 0.0\nsamples = 1\nvalue = [0, 0, 0, 1, 0, 0]"] ;
513 -> 515 ;
516 [label="total sulfur dioxide <= 195.5\ngini = 0.444\nsamples = 3\nvalue = [0, 1, 0, 0, 2, 0]"] ;
496 -> 516 ;
517 [label="gini = 0.0\nsamples = 1\nvalue = [0, 1, 0, 0, 0, 0]"] ;
516 -> 517 ;
518 [label="gini = 0.0\nsamples = 2\nvalue = [0, 0, 0, 0, 2, 0]"] ;
516 -> 518 ;
519 [label="density <= 1.0\ngini = 0.494\nsamples = 9\nvalue = [0, 0, 6, 1, 2, 0]"] ;
495 -> 519 ;
520 [label="residual sugar <= 1.9\ngini = 0.245\nsamples = 7\nvalue = [0, 0, 6, 1, 0, 0]"] ;
519 -> 520 ;
521 [label="gini = 0.0\nsamples = 1\nvalue = [0, 0, 0, 1, 0, 0]"] ;
520 -> 521 ;
522 [label="gini = 0.0\nsamples = 6\nvalue = [0, 0, 6, 0, 0, 0]"] ;
520 -> 522 ;
523 [label="gini = 0.0\nsamples = 2\nvalue = [0, 0, 0, 0, 2, 0]"] ;
519 -> 523 ;
524 [label="sulphates <= 0.585\ngini = 0.609\nsamples = 267\nvalue = [2, 13, 59, 151, 37, 5]"] ;
402 -> 524 ;
525 [label="pH <= 3.355\ngini = 0.642\nsamples = 87\nvalue = [2, 10, 37, 35, 3, 0]"] ;
524 -> 525 ;
526 [label="pH <= 3.25\ngini = 0.497\nsamples = 26\nvalue = [0, 1, 7, 17, 1, 0]"] ;
525 -> 526 ;
527 [label="chlorides <= 0.115\ngini = 0.463\nsamples = 11\nvalue = [0, 0, 7, 4, 0, 0]"] ;
526 -> 527 ;
528 [label="fixed acidity <= 7.9\ngini = 0.219\nsamples = 8\nvalue = [0, 0, 7, 1, 0, 0]"] ;
527 -> 528 ;
529 [label="gini = 0.0\nsamples = 1\nvalue = [0, 0, 0, 1, 0, 0]"] ;
528 -> 529 ;
530 [label="gini = 0.0\nsamples = 7\nvalue = [0, 0, 7, 0, 0, 0]"] ;
528 -> 530 ;
531 [label="gini = 0.0\nsamples = 3\nvalue = [0, 0, 0, 3, 0, 0]"] ;
527 -> 531 ;
532 [label="sulphates <= 0.575\ngini = 0.24\nsamples = 15\nvalue = [0, 1, 0, 13, 1, 0]"] ;
526 -> 532 ;
533 [label="gini = 0.0\nsamples = 11\nvalue = [0, 0, 0, 11, 0, 0]"] ;
532 -> 533 ;
534 [label="total sulfur dioxide <= 26.0\ngini = 0.625\nsamples = 4\nvalue = [0, 1, 0, 2, 1, 0]"] ;
532 -> 534 ;
535 [label="total sulfur dioxide <= 14.5\ngini = 0.5\nsamples = 2\nvalue = [0, 1, 0, 0, 1, 0]"] ;
534 -> 535 ;
536 [label="gini = 0.0\nsamples = 1\nvalue = [0, 1, 0, 0, 0, 0]"] ;
535 -> 536 ;
537 [label="gini = 0.0\nsamples = 1\nvalue = [0, 0, 0, 0, 1, 0]"] ;
535 -> 537 ;
538 [label="gini = 0.0\nsamples = 2\nvalue = [0, 0, 0, 2, 0, 0]"] ;
534 -> 538 ;
539 [label="alcohol <= 11.45\ngini = 0.647\nsamples = 61\nvalue = [2, 9, 30, 18, 2, 0]"] ;
525 -> 539 ;
540 [label="citric acid <= 0.115\ngini = 0.572\nsamples = 38\nvalue = [2, 7, 23, 6, 0, 0]"] ;
539 -> 540 ;
541 [label="volatile acidity <= 0.66\ngini = 0.671\nsamples = 28\nvalue = [2, 7, 13, 6, 0, 0]"] ;
540 -> 541 ;
542 [label="pH <= 3.46\ngini = 0.426\nsamples = 13\nvalue = [0, 0, 9, 4, 0, 0]"] ;
541 -> 542 ;
543 [label="pH <= 3.415\ngini = 0.49\nsamples = 7\nvalue = [0, 0, 3, 4, 0, 0]"] ;
542 -> 543 ;
544 [label="gini = 0.0\nsamples = 3\nvalue = [0, 0, 3, 0, 0, 0]"] ;
543 -> 544 ;
545 [label="gini = 0.0\nsamples = 4\nvalue = [0, 0, 0, 4, 0, 0]"] ;
543 -> 545 ;
546 [label="gini = 0.0\nsamples = 6\nvalue = [0, 0, 6, 0, 0, 0]"] ;
542 -> 546 ;
547 [label="alcohol <= 10.95\ngini = 0.676\nsamples = 15\nvalue = [2, 7, 4, 2, 0, 0]"] ;
541 -> 547 ;
548 [label="total sulfur dioxide <= 22.0\ngini = 0.691\nsamples = 9\nvalue = [2, 1, 4, 2, 0, 0]"] ;
547 -> 548 ;
549 [label="fixed acidity <= 7.3\ngini = 0.571\nsamples = 7\nvalue = [2, 1, 4, 0, 0, 0]"] ;
548 -> 549 ;
550 [label="gini = 0.0\nsamples = 3\nvalue = [0, 0, 3, 0, 0, 0]"] ;
549 -> 550 ;
551 [label="chlorides <= 0.09\ngini = 0.625\nsamples = 4\nvalue = [2, 1, 1, 0, 0, 0]"] ;
549 -> 551 ;
552 [label="volatile acidity <= 1.008\ngini = 0.5\nsamples = 2\nvalue = [0, 1, 1, 0, 0, 0]"] ;
551 -> 552 ;
553 [label="gini = 0.0\nsamples = 1\nvalue = [0, 1, 0, 0, 0, 0]"] ;
552 -> 553 ;
554 [label="gini = 0.0\nsamples = 1\nvalue = [0, 0, 1, 0, 0, 0]"] ;
552 -> 554 ;
555 [label="gini = 0.0\nsamples = 2\nvalue = [2, 0, 0, 0, 0, 0]"] ;
551 -> 555 ;
556 [label="gini = 0.0\nsamples = 2\nvalue = [0, 0, 0, 2, 0, 0]"] ;
548 -> 556 ;
557 [label="gini = 0.0\nsamples = 6\nvalue = [0, 6, 0, 0, 0, 0]"] ;
547 -> 557 ;
558 [label="gini = 0.0\nsamples = 10\nvalue = [0, 0, 10, 0, 0, 0]"] ;
540 -> 558 ;
559 [label="pH <= 3.485\ngini = 0.62\nsamples = 23\nvalue = [0, 2, 7, 12, 2, 0]"] ;
539 -> 559 ;
560 [label="residual sugar <= 3.075\ngini = 0.459\nsamples = 14\nvalue = [0, 1, 2, 10, 1, 0]"] ;
559 -> 560 ;
561 [label="chlorides <= 0.087\ngini = 0.165\nsamples = 11\nvalue = [0, 0, 0, 10, 1, 0]"] ;
560 -> 561 ;
562 [label="gini = 0.0\nsamples = 9\nvalue = [0, 0, 0, 9, 0, 0]"] ;
561 -> 562 ;
563 [label="alcohol <= 11.65\ngini = 0.5\nsamples = 2\nvalue = [0, 0, 0, 1, 1, 0]"] ;
561 -> 563 ;
564 [label="gini = 0.0\nsamples = 1\nvalue = [0, 0, 0, 0, 1, 0]"] ;
563 -> 564 ;
565 [label="gini = 0.0\nsamples = 1\nvalue = [0, 0, 0, 1, 0, 0]"] ;
563 -> 565 ;
566 [label="chlorides <= 0.062\ngini = 0.444\nsamples = 3\nvalue = [0, 1, 2, 0, 0, 0]"] ;
560 -> 566 ;
567 [label="gini = 0.0\nsamples = 1\nvalue = [0, 1, 0, 0, 0, 0]"] ;
566 -> 567 ;
568 [label="gini = 0.0\nsamples = 2\nvalue = [0, 0, 2, 0, 0, 0]"] ;
566 -> 568 ;
569 [label="density <= 0.994\ngini = 0.617\nsamples = 9\nvalue = [0, 1, 5, 2, 1, 0]"] ;
559 -> 569 ;
570 [label="total sulfur dioxide <= 58.5\ngini = 0.278\nsamples = 6\nvalue = [0, 1, 5, 0, 0, 0]"] ;
569 -> 570 ;
571 [label="gini = 0.0\nsamples = 5\nvalue = [0, 0, 5, 0, 0, 0]"] ;
570 -> 571 ;
572 [label="gini = 0.0\nsamples = 1\nvalue = [0, 1, 0, 0, 0, 0]"] ;
570 -> 572 ;
573 [label="free sulfur dioxide <= 29.5\ngini = 0.444\nsamples = 3\nvalue = [0, 0, 0, 2, 1, 0]"] ;
569 -> 573 ;
574 [label="gini = 0.0\nsamples = 2\nvalue = [0, 0, 0, 2, 0, 0]"] ;
573 -> 574 ;
575 [label="gini = 0.0\nsamples = 1\nvalue = [0, 0, 0, 0, 1, 0]"] ;
573 -> 575 ;
576 [label="density <= 0.992\ngini = 0.533\nsamples = 180\nvalue = [0, 3, 22, 116, 34, 5]"] ;
524 -> 576 ;
577 [label="fixed acidity <= 5.45\ngini = 0.49\nsamples = 7\nvalue = [0, 0, 0, 0, 4, 3]"] ;
576 -> 577 ;
578 [label="gini = 0.0\nsamples = 4\nvalue = [0, 0, 0, 0, 4, 0]"] ;
577 -> 578 ;
579 [label="gini = 0.0\nsamples = 3\nvalue = [0, 0, 0, 0, 0, 3]"] ;
577 -> 579 ;
580 [label="total sulfur dioxide <= 76.5\ngini = 0.504\nsamples = 173\nvalue = [0, 3, 22, 116, 30, 2]"] ;
576 -> 580 ;
581 [label="chlorides <= 0.089\ngini = 0.478\nsamples = 159\nvalue = [0, 3, 14, 110, 30, 2]"] ;
580 -> 581 ;
582 [label="total sulfur dioxide <= 12.5\ngini = 0.394\nsamples = 117\nvalue = [0, 1, 7, 89, 18, 2]"] ;
581 -> 582 ;
583 [label="alcohol <= 11.45\ngini = 0.656\nsamples = 8\nvalue = [0, 1, 0, 2, 4, 1]"] ;
582 -> 583 ;
584 [label="chlorides <= 0.067\ngini = 0.444\nsamples = 3\nvalue = [0, 1, 0, 2, 0, 0]"] ;
583 -> 584 ;
585 [label="gini = 0.0\nsamples = 2\nvalue = [0, 0, 0, 2, 0, 0]"] ;
584 -> 585 ;
586 [label="gini = 0.0\nsamples = 1\nvalue = [0, 1, 0, 0, 0, 0]"] ;
584 -> 586 ;
587 [label="volatile acidity <= 0.425\ngini = 0.32\nsamples = 5\nvalue = [0, 0, 0, 0, 4, 1]"] ;
583 -> 587 ;
588 [label="gini = 0.0\nsamples = 1\nvalue = [0, 0, 0, 0, 0, 1]"] ;
587 -> 588 ;
589 [label="gini = 0.0\nsamples = 4\nvalue = [0, 0, 0, 0, 4, 0]"] ;
587 -> 589 ;
590 [label="residual sugar <= 5.15\ngini = 0.342\nsamples = 109\nvalue = [0, 0, 7, 87, 14, 1]"] ;
582 -> 590 ;
591 [label="pH <= 3.565\ngini = 0.303\nsamples = 103\nvalue = [0, 0, 7, 85, 11, 0]"] ;
590 -> 591 ;
592 [label="chlorides <= 0.056\ngini = 0.25\nsamples = 93\nvalue = [0, 0, 6, 80, 7, 0]"] ;
591 -> 592 ;
593 [label="chlorides <= 0.046\ngini = 0.5\nsamples = 6\nvalue = [0, 0, 3, 3, 0, 0]"] ;
592 -> 593 ;
594 [label="gini = 0.0\nsamples = 2\nvalue = [0, 0, 0, 2, 0, 0]"] ;
593 -> 594 ;
595 [label="residual sugar <= 1.65\ngini = 0.375\nsamples = 4\nvalue = [0, 0, 3, 1, 0, 0]"] ;
593 -> 595 ;
596 [label="gini = 0.0\nsamples = 1\nvalue = [0, 0, 0, 1, 0, 0]"] ;
595 -> 596 ;
597 [label="gini = 0.0\nsamples = 3\nvalue = [0, 0, 3, 0, 0, 0]"] ;
595 -> 597 ;
598 [label="alcohol <= 10.575\ngini = 0.209\nsamples = 87\nvalue = [0, 0, 3, 77, 7, 0]"] ;
592 -> 598 ;
599 [label="gini = 0.0\nsamples = 1\nvalue = [0, 0, 0, 0, 1, 0]"] ;
598 -> 599 ;
600 [label="density <= 0.994\ngini = 0.192\nsamples = 86\nvalue = [0, 0, 3, 77, 6, 0]"] ;
598 -> 600 ;
601 [label="pH <= 3.34\ngini = 0.48\nsamples = 5\nvalue = [0, 0, 0, 3, 2, 0]"] ;
600 -> 601 ;
602 [label="gini = 0.0\nsamples = 3\nvalue = [0, 0, 0, 3, 0, 0]"] ;
601 -> 602 ;
603 [label="gini = 0.0\nsamples = 2\nvalue = [0, 0, 0, 0, 2, 0]"] ;
601 -> 603 ;
604 [label="residual sugar <= 2.65\ngini = 0.162\nsamples = 81\nvalue = [0, 0, 3, 74, 4, 0]"] ;
600 -> 604 ;
605 [label="volatile acidity <= 0.637\ngini = 0.063\nsamples = 61\nvalue = [0, 0, 2, 59, 0, 0]"] ;
604 -> 605 ;
606 [label="gini = 0.0\nsamples = 53\nvalue = [0, 0, 0, 53, 0, 0]"] ;
605 -> 606 ;
607 [label="volatile acidity <= 0.65\ngini = 0.375\nsamples = 8\nvalue = [0, 0, 2, 6, 0, 0]"] ;
605 -> 607 ;
608 [label="gini = 0.0\nsamples = 2\nvalue = [0, 0, 2, 0, 0, 0]"] ;
607 -> 608 ;
609 [label="gini = 0.0\nsamples = 6\nvalue = [0, 0, 0, 6, 0, 0]"] ;
607 -> 609 ;
610 [label="citric acid <= 0.295\ngini = 0.395\nsamples = 20\nvalue = [0, 0, 1, 15, 4, 0]"] ;
604 -> 610 ;
611 [label="gini = 0.0\nsamples = 9\nvalue = [0, 0, 0, 9, 0, 0]"] ;
610 -> 611 ;
612 [label="fixed acidity <= 10.4\ngini = 0.562\nsamples = 11\nvalue = [0, 0, 1, 6, 4, 0]"] ;
610 -> 612 ;
613 [label="alcohol <= 11.0\ngini = 0.32\nsamples = 5\nvalue = [0, 0, 1, 0, 4, 0]"] ;
612 -> 613 ;
614 [label="gini = 0.0\nsamples = 1\nvalue = [0, 0, 1, 0, 0, 0]"] ;
613 -> 614 ;
615 [label="gini = 0.0\nsamples = 4\nvalue = [0, 0, 0, 0, 4, 0]"] ;
613 -> 615 ;
616 [label="gini = 0.0\nsamples = 6\nvalue = [0, 0, 0, 6, 0, 0]"] ;
612 -> 616 ;
617 [label="sulphates <= 0.68\ngini = 0.58\nsamples = 10\nvalue = [0, 0, 1, 5, 4, 0]"] ;
591 -> 617 ;
618 [label="total sulfur dioxide <= 27.0\ngini = 0.278\nsamples = 6\nvalue = [0, 0, 1, 5, 0, 0]"] ;
617 -> 618 ;
619 [label="gini = 0.0\nsamples = 1\nvalue = [0, 0, 1, 0, 0, 0]"] ;
618 -> 619 ;
620 [label="gini = 0.0\nsamples = 5\nvalue = [0, 0, 0, 5, 0, 0]"] ;
618 -> 620 ;
621 [label="gini = 0.0\nsamples = 4\nvalue = [0, 0, 0, 0, 4, 0]"] ;
617 -> 621 ;
622 [label="free sulfur dioxide <= 8.5\ngini = 0.611\nsamples = 6\nvalue = [0, 0, 0, 2, 3, 1]"] ;
590 -> 622 ;
623 [label="citric acid <= 0.665\ngini = 0.444\nsamples = 3\nvalue = [0, 0, 0, 2, 0, 1]"] ;
622 -> 623 ;
624 [label="gini = 0.0\nsamples = 2\nvalue = [0, 0, 0, 2, 0, 0]"] ;
623 -> 624 ;
625 [label="gini = 0.0\nsamples = 1\nvalue = [0, 0, 0, 0, 0, 1]"] ;
623 -> 625 ;
626 [label="gini = 0.0\nsamples = 3\nvalue = [0, 0, 0, 0, 3, 0]"] ;
622 -> 626 ;
627 [label="density <= 0.997\ngini = 0.638\nsamples = 42\nvalue = [0, 2, 7, 21, 12, 0]"] ;
581 -> 627 ;
628 [label="total sulfur dioxide <= 13.5\ngini = 0.227\nsamples = 16\nvalue = [0, 1, 0, 14, 1, 0]"] ;
627 -> 628 ;
629 [label="gini = 0.0\nsamples = 1\nvalue = [0, 1, 0, 0, 0, 0]"] ;
628 -> 629 ;
630 [label="density <= 0.995\ngini = 0.124\nsamples = 15\nvalue = [0, 0, 0, 14, 1, 0]"] ;
628 -> 630 ;
631 [label="alcohol <= 11.45\ngini = 0.5\nsamples = 2\nvalue = [0, 0, 0, 1, 1, 0]"] ;
630 -> 631 ;
632 [label="gini = 0.0\nsamples = 1\nvalue = [0, 0, 0, 0, 1, 0]"] ;
631 -> 632 ;
633 [label="gini = 0.0\nsamples = 1\nvalue = [0, 0, 0, 1, 0, 0]"] ;
631 -> 633 ;
634 [label="gini = 0.0\nsamples = 13\nvalue = [0, 0, 0, 13, 0, 0]"] ;
630 -> 634 ;
635 [label="volatile acidity <= 0.505\ngini = 0.675\nsamples = 26\nvalue = [0, 1, 7, 7, 11, 0]"] ;
627 -> 635 ;
636 [label="citric acid <= 0.395\ngini = 0.615\nsamples = 13\nvalue = [0, 0, 5, 6, 2, 0]"] ;
635 -> 636 ;
637 [label="gini = 0.0\nsamples = 4\nvalue = [0, 0, 4, 0, 0, 0]"] ;
636 -> 637 ;
638 [label="free sulfur dioxide <= 9.0\ngini = 0.494\nsamples = 9\nvalue = [0, 0, 1, 6, 2, 0]"] ;
636 -> 638 ;
639 [label="total sulfur dioxide <= 14.0\ngini = 0.278\nsamples = 6\nvalue = [0, 0, 1, 5, 0, 0]"] ;
638 -> 639 ;
640 [label="gini = 0.0\nsamples = 1\nvalue = [0, 0, 1, 0, 0, 0]"] ;
639 -> 640 ;
641 [label="gini = 0.0\nsamples = 5\nvalue = [0, 0, 0, 5, 0, 0]"] ;
639 -> 641 ;
642 [label="pH <= 3.205\ngini = 0.444\nsamples = 3\nvalue = [0, 0, 0, 1, 2, 0]"] ;
638 -> 642 ;
643 [label="gini = 0.0\nsamples = 1\nvalue = [0, 0, 0, 1, 0, 0]"] ;
642 -> 643 ;
644 [label="gini = 0.0\nsamples = 2\nvalue = [0, 0, 0, 0, 2, 0]"] ;
642 -> 644 ;
645 [label="residual sugar <= 3.8\ngini = 0.485\nsamples = 13\nvalue = [0, 1, 2, 1, 9, 0]"] ;
635 -> 645 ;
646 [label="gini = 0.0\nsamples = 9\nvalue = [0, 0, 0, 0, 9, 0]"] ;
645 -> 646 ;
647 [label="chlorides <= 0.098\ngini = 0.625\nsamples = 4\nvalue = [0, 1, 2, 1, 0, 0]"] ;
645 -> 647 ;
648 [label="gini = 0.0\nsamples = 2\nvalue = [0, 0, 2, 0, 0, 0]"] ;
647 -> 648 ;
649 [label="residual sugar <= 4.1\ngini = 0.5\nsamples = 2\nvalue = [0, 1, 0, 1, 0, 0]"] ;
647 -> 649 ;
650 [label="gini = 0.0\nsamples = 1\nvalue = [0, 1, 0, 0, 0, 0]"] ;
649 -> 650 ;
651 [label="gini = 0.0\nsamples = 1\nvalue = [0, 0, 0, 1, 0, 0]"] ;
649 -> 651 ;
652 [label="sulphates <= 0.735\ngini = 0.49\nsamples = 14\nvalue = [0, 0, 8, 6, 0, 0]"] ;
580 -> 652 ;
653 [label="sulphates <= 0.61\ngini = 0.346\nsamples = 9\nvalue = [0, 0, 7, 2, 0, 0]"] ;
652 -> 653 ;
654 [label="gini = 0.0\nsamples = 1\nvalue = [0, 0, 0, 1, 0, 0]"] ;
653 -> 654 ;
655 [label="pH <= 3.34\ngini = 0.219\nsamples = 8\nvalue = [0, 0, 7, 1, 0, 0]"] ;
653 -> 655 ;
656 [label="gini = 0.0\nsamples = 1\nvalue = [0, 0, 0, 1, 0, 0]"] ;
655 -> 656 ;
657 [label="gini = 0.0\nsamples = 7\nvalue = [0, 0, 7, 0, 0, 0]"] ;
655 -> 657 ;
658 [label="fixed acidity <= 12.95\ngini = 0.32\nsamples = 5\nvalue = [0, 0, 1, 4, 0, 0]"] ;
652 -> 658 ;
659 [label="gini = 0.0\nsamples = 4\nvalue = [0, 0, 0, 4, 0, 0]"] ;
658 -> 659 ;
660 [label="gini = 0.0\nsamples = 1\nvalue = [0, 0, 1, 0, 0, 0]"] ;
658 -> 660 ;
}